solver_type L1R_L2LOSS_SVC
nr_class 102
label 63 0 94 55 4 85 45 1 21 19 3 99 6 97 50 36 86 44 90 17 47 20 23 30 49 56 12 80 2 58 100 54 48 71 10 88 64 82 25 76 89 26 95 31 52 22 41 34 91 18 79 33 16 67 75 15 11 8 42 46 62 13 7 40 68 81 28 92 5 98 93 87 77 29 14 61 59 83 70 66 101 24 65 57 53 78 38 84 60 73 74 39 69 51 37 27 72 32 9 43 35 96
nr_feature 4075
bias -1
w
0 0 0 0 0 0 0 0.01257509809434925 0 0 0 0 0 0 0 0 -0.01179688459276382 -0.003078541855801742 0 0 0 -0.005890402529525421 0 0 0 0 0 0 0 0 0 0 0 0 0 -0.001645065139157272 0 0 0 0 0 0 0 0 0 0 0 0 0 -0.008161405061474728 0 0 0 -0.01419562349289784 0.001159534020522681 0 0 0 0 0 0 0 0 0 0 0 0 0 0 0 0.01330448727504045 0 0 0.002444865297146137 -0.001799007423720746 0 0 0 0 0 0 0 0 0 0 0 0 0 0 0 0 0 0 0 0 0 0 0 0 0 0 -0.0008351082701540958 
0 0 0 0 0 0 0 0 0 -0.001912328919898125 0 0 0 0 0 0 0 0 0 0 0 0 -0.003177578621645066 0 0.002140832118901648 0 0 0 0 0 0 0 0 -0.002343800563346837 0 0 0.002937112446319617 0 -0.003574126791152063 0 -0.009872197478215211 0 0 0 0 0 -0.0007051339059794047 0 0 -0.000360724525135509 0 0 0 0 0 0 0 0 0 0 0 0 0 0 0 0 0 0 0 0 0.01572447296165836 0 0 0 0 0.0002943221422740397 0 0 0.0008855461890619926 0.02655582728411053 -0.008407793673868706 0 0 -0.001137011505128762 0 0 0 0 0 0 0 -3.30052785432694e-005 0 0 0 0 0 0 0 0 0 0 
0.0003981374755550323 0 0 0 0 0 0 0 0 0 0.000375001360845309 0 0 0 0 0 0 0 0 0 0 0 0 0 0 0 0 0 0 0 0 0 0 0 0 0 0 0 0 0 0 0 0 0.0003144065033435899 0 0 0 0 -0.0008254696658562275 0 0 0 0 0 0 0 0 0 0 0 0 0 0.0007386544102844744 0 0 0 0 0 0 0 0 0 0 0 0 0 0 0 0 0.03730201465062142 0 0 0 0 0 0 0 0 0 -0.002446338513010873 0 0 0 0 0 0 0 0 0 0 0 0 
0 0 0 0 0 0 0 0 0 0 0 0 0 0 0 0 0 0 0 0 0 0 0 0 0 -0.002385228822462983 0 0 0 0 0 0 0 0 0 0 0 0 0 0 0 0 0 0 0 0 0 0 0 0 0 0 0 -0.0001227299299090054 0 0 0 0 0 0 0 0 0 0 0 0 0 0 0 0 0 -0.003584164476033659 0 0 0 0 0 0 0 0 0 0 0 0 0 0 0 0 0 0 0 -0.001755032490318646 0 0 0 -0.001510481458972317 0 0 0 0 0.01613759805666229 0 
0 0 0 0 0 0 0 0.00531178985690675 0 -0.008159966133913092 0 0 0 0 0 0 0 0 0 0 0 0 0 0 0 0 0 0 0 0 0 0 0 0 0 0 0 0 0 0 0.07684655222627418 -0.001774995177213686 0 0 0 0 0 0 0 -0.01021734671796265 0 0 0 0 0 0 0 0 0 0 0 0 0 0 -0.00327336332904021 0 0 0 0 0 0 0 0 0 -0.001723915639457202 0 0 0 0 0.03500974246505827 0 0 0 0 0 0 0 0 0 0 0 0 0 0 0 0 0 0 0 0 0 0 
0.0172049825772073 0 0 0 0 0 0 -0.001302308118433743 0 0 0 0 0 -0.003061424368770887 0 -0.005177023689223911 0 0 -0.0005893414017932209 0 0 0 0 0 -0.002087202741170185 0 0 0.0006351460136475391 0 0 0.001434889949696869 0 0.0003947753341361543 -0.001191037588251238 -4.839645775982989e-006 0 0 0 0 0.005260546448959621 0 0 0 -0.00381328787663878 0 0 0 0 0 0 0 0 0 0 0 0 0 0 0 0 0 0 0 0 -0.0003202390920465861 0.001273500138519204 0 0.0003997452121786427 -0.001972292727901266 0 0 0 0 0 0.002590451716272257 0 0 0 0 0 0 0 0 0 0 0 0 0 0 0 0 0 0 0.002530092041856061 0 0.006959366226482952 0 0 0 0 -0.0006251977581092045 0 
0.0020465878464563 0 0 0 0 0 -0.00604471163689463 -0.003912885838524706 0 0 -0.003048770159805524 0 0.003960525607430974 0 0.0006341452343694383 0 0 0 0 0 0.003063410528158422 0 0 0 0 0 0 0 -0.001419480201424188 0 0.01468251148397623 -0.0008698868021950568 0 0 0 0 0 0 0 0 -0.002029954373134261 0 0 0 0 0 0 -0.003061334617205976 0 0 0 0 0 -1.730132903386178e-005 0 0 0.001272547796830992 0 0 -0.0009576451021684914 0.001641987272172896 0 0.00182536034606047 0 0 0.0005723580813784077 0 0 0 -0.004619348699651246 0.000237098850508424 -0.002884387987624415 0.00143579932453984 0 0 0 0 0 0 0 0 -0.009583601865541297 0 0 0 0 0 0.0003730066230199859 0 0 -0.005654258752083989 0 0 0 0 0 0.01203811483093409 0 0 0 -0.000359092643497218 0 
0 0 0 0 0 0 0 0 0 0 0 0 0 0 0 0 0 0 0 0 0 0 0 0 0 0 0 0 0 0 0 0 0 0 0 0 0 0 0 0 0 0 0 0 -0.001941191507027504 0 0 -0.001764548563159972 0 0 0 0 0 0 0 0 0 0 0 0 0 0.0008900845971491986 0 -0.01391926240976727 0 0 0 0 0 0 0.00127586891285731 0 0 0 0 0 0 0 0 -0.006700190289149024 0 0.0008717177648227534 0 0 0 -0.0009586712366528949 0 0 0 0.001431027268837901 0 0 0 0 0 0 0.0004721641234613973 0 0 0 0 0 
0 0 0 0 0 0 -0.0002185440479485414 -0.001441921217423809 -0.009527223050869348 0 0 0 0 0 0 0 0 0 0 0.001060338616008765 0 0 0 0.002852196258902714 0 0 -0.0009186163112076708 0 0 0 -0.00344660069696941 0 0 0 0 0.0008524229239403972 -0.000986807863947626 0 0 -0.009127844060114758 0 0.0007030755147894775 0 0 0 0 0 0 0 0 0 0 -0.001023289579917623 0.00657402398891592 0 0 0 0 0 0 0 0 0 0 0.0177745649901309 0 0 0 0.003255135899335899 0 0 0 0 0 -0.0002533075763574754 0.0008916394972298031 0 0 0 -0.00910158821908981 0 0 -0.001002094116843923 0 0 0 0 0 0 0 0 0 0 0 0 0 0 0 0 0 0 0 
0 0 0 0 0 0 0 0 0 0 0 0 0 0 0 0 0 0 0 0 0 0 0 0 0 0 0 0 0 0 0 0 0 0 0 0 0 0 0 0 0 0 0 0 0 0 0 0 0 0 0 0 0 0 0 0 0 0 0 0 0 0 0.0001972347000781034 0 0 0 0 0 0 0 0 0 0 0 0 0 0 0 0 0 0 0 0 0 0 0 0 0 0 0 0 0 0 0 0 0 0 0 0 0 0 0 
0 0 0 0 0 0 -0.00818540312146927 0 0 0.004268924786539704 0 0 0 0 0 0 0 0 0 -0.005370465488629865 0 0 0 0.0004863446859050467 0 -0.003527206738543249 0 0 0 0 0 0 0 0 0 0 0 0 0 0 0 0.002353347492563074 0 0 0 0 0 0 0 0 0 0 -0.003922112306557269 0 0 0 0 0 0 0 0 0 0.002427160969392957 0 0 0 0 0 0 0 0 0 0 0 0 0 0 0 0 0 -0.03608428154427011 0 0 0 0 0 0 0 0.001861578559948984 0 0.002540120450912827 0 0 0 0 0 -0.001761614108283024 0 0.0001300128265167341 0 0 0 
-0.007437141108774394 -0.003757579888090805 0 0 0 0 0 0 0 0 0.001771492202697957 0 0.0008474505867658419 0.0003526066795034046 0 0 0 0 -0.001705731749211118 0 -0.0006682151600744552 0.003668881601393231 0 0 -0.001125445617687374 0 0.0001680168985158837 0 0 0 0 0 -0.002058122329500789 0 0.001586305955349805 0 0.00375535486767082 0 -0.0003548273084396082 0 0.01988711422804513 0 -0.001429760877563318 0 0 0 0 0 -0.0007025419537487128 0 0 0 0.002326659203921907 0.002487715064161027 -0.0004561646080797332 0 0 0 0 0 0 0 0.003057674131918512 0 0 0 0 0 0 0 0 0 0 0 -0.005180626450748449 -0.002933007199154638 0 0 0 0 0 0 -0.001759190606516266 0 0 0 -0.0006646216491161068 0 0 0 0 0 0 0 -0.002786416182887792 0 -0.01174232139986963 0 0 0 0 0.0008146973750628274 
0.006813515175590206 0 0 0 0 0 0 -0.001413077812514522 0 0 0 -0.001971799497150508 0.03912945844850815 0 -0.0007910327206770966 0 0 0 0 0 0 0 0 0 -0.007157917312935243 0 0 0 0 0 -0.003577216876693756 0 0 0 0 0 0 0.001343836305128842 0 0 0.02002100380202542 0.005231177463750568 0 0 0 0 0 0 -0.0007122255199328069 0 0 0 0 0 0 -0.00550735434218151 0 0 0 0 0 0 0 0 0 0 0.003586448942950371 0 0 0.009184754554288951 0 0 -0.01082574412239529 0 0 0 0 0 0 -0.03089935570118321 0 0 0 0 -0.005417182078079071 0 0 0 0 0 0 0 0 0 0 0 0 0 0 0 0 0 
0 0 0 0 0 0 0 0 0 0 0 0.004207568047715823 0 0 -0.004412393803381455 0 0 0 0 0 0.005538191711789598 0 0 0 0 0 0 0 -0.004911853316963542 0 0 0 0 0 -0.009946523820760287 0.002019723244921299 0 0.007430768914759291 0 0 0 0 0 0 0.0001046250118469522 0 0 0 0 0 0 0 0.01626138033469109 0 0 -0.002877353963181995 0 0 0 0 0 0.0006842328793155076 -0.01012093278997808 0 0 0 0 0 0 0 0 0 -0.004539389147257271 0.001153156891571123 0.003906441836695117 0 0 0 0 0 0 0 0 0 0 0 0 0 -0.001243072340044344 0 0.01079814179793147 0 0 0 0 0 0 -0.00470413292685532 0 0 0 0.0007330318404238001 
0 0 0 0 0 -0.0199810759176195 -0.008639196872648625 0 0 0 0 0 0 0 0 0 0 0 0 0 0 0 0.01115155982840686 0 0 0 0 0 0 0 0 0 0 0 0 0 0 0 0 0 -0.0533540632585555 0 0.007990616669016071 0 0 0 0 0 0 0 0 0 0 0 0 0 0 0 0 -0.006593155298902493 0 0 0.003141017660176616 9.811491147779298e-005 0 0 0 0 0 0 0.001679356593777255 0 0 0 0 0 0.01132033093541751 0 -0.004943937487819019 0 0 0.004030311417202732 0 0 0 0 0 0 0 0 0 0 0 0 0 0 0 0 0 0 0 0 
0 0 0 0 0 0 -0.003066150540776495 0 -5.409056431536405e-005 0 0 0 0 0 0 0 0 0 0 0.001039455933171817 0 0.0002890359792440762 0 0 0 0 0 0 0.01222136371331957 0 0 0 0 0 0 0 0 0 0 0 -0.08629609125471001 0 0 0 0 0 0 0 0 0 0 0 0 0 0 0 0 0 -0.002813186908695902 0 0 0 0 0 0 0 0 0 0 0 0 0 0 0 0 0 0 0 0 -0.05273923482135812 0 0 0 0 0 0 0 0 0 0 0 0 0 0 0 -0.002046851709785832 0 0 -0.007132061694105343 0 0 0 
0.002204406046248115 0 0 0 0 0 0 0 0 0 0 0 0 0 0 0 0 0 0 0 0 -0.0005099457963739606 0 0.002340687034666258 0 0 0 -0.003486840352226126 0.004675716892363574 0 0 0 0 0 0.001212235136833694 0 0 0 0 0 -0.02082709018057595 0 0 0 0 0 0 0 0 0 0 0 0 0 0 0.0004234886406684931 0 0 0 0 0 0 0 0 0 0 0 0 0 0 0 0 0 0 0 0 0 0 0 0.002598758065490324 0 0 0 0 0 0 0 0 0 0 0 0 -0.00191353360252573 0 0 0 0 0 0 0 0 0 
0 0 0 0 0 0 0 0 0 0 0 0 0 0 0 0 0 0 0 0 0 0 0 0 0 0 0 0 0 0 0 0 0 0 0 0 -0.01912774746470231 0 0 0 0 0 0 0 0 0 0 0 0 0 0 0 0 0 0 0 0 0.01207457821581752 0 0 0 0 0 -1.142652920514507e-005 0 0 0 0 -0.001124606290045909 0 0 0 0 -0.0006138664990144025 0 0 0 0 0 0 0 0 0 0 0 0 0 0 0 0 0 0 0 0 0 0 0 0 0 0.00760855173127678 0 0 
0 0 0 0 0 0 0 0 0 0.01167615432890701 0 0 0 0.007748665526880444 0 0 0 0 0 0 0 0.001890901691308155 0 0 0 0 0 0 0 0 -0.0005104162031404839 0 0 0 0 0 0 0 0 0 0 0 0 0 0 0 0 0 -0.003720260992576665 0 0 0 0 0 0 0 0 0 0 0 -0.001238039087469305 0 0 0 0 0 0 0 0 0 -0.008163468252929027 0 0 0 -0.002350492438919384 0 0 0 0 -0.02692429193235172 0 0 0.002186030970738482 0 0 0 0 0 0 0 0 0 0.0005588342729639572 0 0 0 0 0 0 0 0 0 
0 0 0 0 0 0 -0.01012188498951468 0 0 -0.00204892897706293 -0.006279112008472186 0 0 0 0 0.00155042895726943 0 0 0 0 -0.001333130066263278 0 0 0 0 0 0 0 0 0.002110057451520881 0.00127769401349526 0 0 0 0 0 0 0 0 0 0 0 0 0 0 0 0 0 0 0 0 0 -0.00253733355839978 0 0 0 0 0 -0.002088629276005475 0 0 0 0 0 0 0 0 0 0 0 0 0 0 0 0 0 0 0 0 0 0 0.0004126637954875205 0 0 -0.003555046062089963 0 0 0 0 0 0 0 0 0.001283012163054405 -0.001598445431567355 0 0 0 0 0 0 0 
-0.03839559401637452 0 0 0 0 -0.001343593764044616 0 0 0 0 -0.003930498960359788 0 0 0 0 0 0 0 0 0 0 0 0 0 0 0 0 0 0 -1.055166418322897e-005 -0.0003553481081402919 0 0 0 0 0 -0.1032549720945949 0 0 0 0.1271663200554171 0 0 -0.0008706748660085739 0 0 0 0 0 0 0 0 0.0003405850263328429 0 0 0.007865013575450259 0 0 0 0 0 0 0 0 0 0 0 0 0 0 0 0 0 -0.001127996785487282 0 0 0 0 0 0 0.002016656282376105 0 0 0 0.0006895794820872663 0 0 0 0 0 0 0 0 0 0 0 0 0 0 0 0 0 
-0.01300797730435493 0 -0.00314645275187303 0 0 0.003016211890087579 0.009193891615175819 0 0 0 0 0 0 -0.01064574523622518 -0.0007722471333643889 0 -0.0001713221136319289 -0.002175828967895997 0 0 -0.007591554138697262 0 -0.0001673309529534964 0 0 0 0 0 -0.001837865613132838 0 0 0 0 -0.0051854369542241 0 0 0 0 0 0 0 0 0 0 0 -0.003219996190838608 0 -0.009796393125505502 0 0 0 0 0 0.0001302011004073048 0.004038493401886042 0.0004850255061088817 0 0.005682926964844953 0.003601659669484292 0.002650917707799044 -0.0003083240392129832 0 0 0 0 0 0 0 0 0 0 0 0 2.638034359923709e-005 0 0 0 0 0 0 0.01021953975681781 0 0.008870604454527016 0 0 0 0 0 0 -0.01560511751247063 0 0 0 0 0 0.003418077814461808 0 0 0 0 0.007233188130577551 0 
0 0 0 0 -0.001671458961860302 0 0 0 0 0 0 0 0 0 0.01368869589695346 0 0.0006353743234193521 0 0 0 0 0 0 0 0 0 0 0 0 0 0 0 0 0 -0.0002975449418651167 0 0 0 0 0 0.05659402574959535 0 0 0 0 0 0 0 0 0 0 0 0 0 0 0 0.001054053020320482 0 0.003199001890015318 0 0 0 0 0 0 0 0 -0.0003644595843469376 0.006625498526149338 0 0 0 0 0.004894624557665562 0 0 0 0 0 0 0 0 0 0 0 0 0 0 -0.0006835135627446748 -0.0004265654963938522 0 0 0 0 0 0 0 0 0 0 0 0 
0 0 0 0 0 0 0 0 0 0 0 0 0 0 0 0 0 0 0 0 -0.0006035372923873778 0 -0.003416510589730957 0 0 0 0 0 0 0 0 0 0 0 0 0 0 0 0 0 0 0 0.0004978116040285679 0 0 0 0 0 0 0 0 0 0 0 0 0 0 0 0 0 0 0 0 -0.0009776939752224132 0 0 0 0 0 0 0 0 0 0 0 0 0 0 0 0 0 0 0 0 0 0 0 0 0 0 0 0 0 0 -0.001830653315456121 0 0 0 0 0 0 0 
0 0 0 0 0 0 -0.009443472769378035 0 0 -0.003426058859810917 0 0 0 0.01359346493773752 0 0 -0.005937883004413632 -0.006781152407498968 0 0 0 0 0 0 0 0 0.01218064485972849 0 0 0.007842516527955899 0 0 0 0.001198370120210618 0 0 0.002674808291688191 0 0 0.003886562079997161 0 0 0 0 0.001709051229282232 0 0 0 -0.0001790175842038566 0 0 0 -0.002673669012071903 0 0 0 0 -0.006919116914370281 -0.0009931369918000882 0.008030165727487697 0 0 0 0 0 0 0 -0.007947553018180814 -0.003300877877193673 0 0 0 -0.001859178337858464 -0.001658941329958027 0 0 0 0 0 0.03595770418904028 0 0 -0.00399049666270051 0 0 0 0 -0.007759532527963129 -0.004296746726104374 -0.01648567773135875 0 0.002169244517174189 0 0 0 0 0 0 0 0 0 0 
-0.0004582076732515849 0 0 0 0 0 0 0 0 0 0 0 0 0 0 0 0 0 0.0009173829106093029 0 0 0.002353943840769218 0.002408180415285682 0 0 0 0.005472071241289836 0 0 0 0 0 0 -0.003510170882807126 0 0 0 0 0 0 0 -0.0009500237772042757 0 0.001755659729463352 0 0 -0.0009551280367340806 0 0.0009863349762452025 0 0 0 0 0 0 0 0 -0.004959963418822483 -0.006270907830340171 0 0 0 -0.000983921516523595 0 0 0 0.001165563778025248 0 -0.001066071641944184 0 0 0 0 0 -0.005544803524754331 0 0 0 0 0.001954198447007153 0 0 0 0.003158574478538068 0 0 0 0 -0.0001427216589290158 0 0 0 0 0 0 0 0.005711096837314091 0 0 0.009576953508851994 0 0.000829228297091033 
0 0 0 0 0.00750948828898263 0 0 0 0 0 0 0 0.003569874117659903 0 0 0 0 0 0 0.003556538368846749 -0.0002085668574956544 0 0 0 0 0 0 0 0 0 0 0 0 0 -0.0008760686667372636 0 0 0 0 0 0.03638554194328533 0 0 0 0 0 -0.004341304411602542 0 0 0 0 0 0 0 0 0 0 0 0 0 0 0 0 0 0 0 0 0 0.002306909434487815 0 0 0 0 0 0 0 0 0 0 0 -0.0001761322124142263 0 0 0 0 0 0 0 0 0 0 -0.0005734515339537852 0 0 0 0 0 0 -0.005442382319334099 0 0 -0.004388484116513883 
-0.01346139895228772 0 0 -0.008433496006528244 0 0 0 0 0 0 0 0 0 -0.0010357330250574 0 -0.002818855348589373 0 0 0 0 0 0 0 0 0.001375485225193226 0 0 0 -0.001478569923237707 0 0 -0.003564366802154981 0 0 0 0 0 0 0 0 -0.02530342938953843 0 0 0 0 0 0.006264648818535502 0 0.003803394820309462 0 0 0 0 -0.001069289439494903 0 0 0 0 0 -0.002222501729508783 0 0.02039286662233103 0 0 -0.003151124409235351 0 0 0 0 0 0 0 0 0 0 0 0 0 0 0 0 0 0 0 0 0 0 0 0 0.0009244527332058189 0 0 -0.003212241215725409 0 0 0 0 0 0 0 0 0 
-0.002201178572427574 0 0 0 0 0 0 0 0 0 -0.003422858181881631 0.003436613909726155 0 0.001951029617927413 0 0 0 -0.01027888166404624 0 0 0 0 0 0 0 0 0 0 0 0 -0.00117039511301115 0 -0.003519829201658229 0 0 0 0 0 0.0003168289564834259 0.01501234121192393 0 0 -0.0005324787229694303 -0.0008057061716038395 -0.005673063270406094 0 0 0 0 -0.002982682663184812 0.0003129815444249266 -0.004775226601768916 0 0 0 0 0 0 -0.001224372982154559 0 0 0 0 0 0 -0.0005566321152789546 0 -0.001541511441118743 -0.006527546700846871 0 0 0 0 -0.002475119813169573 0 0 0 0 0 -0.005714401375711904 0.007587982409032585 0.005184093564887087 -0.0001928316527511523 0 0 0 0 0 0 0 0 0 0 0 0.008840126868542681 0 0 0.0002112955788448563 0 -0.004232653634019676 0 0 
0 0 0 0 0 0 0 0 0 0 0.003543360346704431 0 0 -0.005004473083310195 0 0 0 0 0.006370133461903654 0 0 0 0 0 0 0 0 0 0 0 0 0 -0.004625464768129406 0 0 0 0 0 0 0 -0.0137563279383057 0 -0.01383667179747136 0 0 0 0 0 0 0 -0.01029040469647218 0 0 0.0001111490232948892 0 0 0.001082644965841172 0 0 0 0 -0.003800994286543196 0 0 0 0 0 0 0 0 0 0 0 -0.0007167170809635816 0 0 0 0 0 -0.006227514471984226 0 0 0 0 0 0 -0.01159501155506974 0 0 0 0 0 0 0 0 0 0 0 0 0 0 0 
0 0 0 0 0 0 0 0 0 0.002492964015825834 0 -0.01984442458742714 0 0.0002683354321698053 0 0 0 0 0 0 0 0 0 0 0 0 0 0 0 0 0 0 0 0 0 0 0 0 0 0 0 0 0 0 0 0 0 0 0 0 0 0 0 0 0 0 0 0 0 0 0 0 0 0 0 -0.0001947961290252637 0 -0.004436610920108388 0 0 0 0 0 -0.001958412657590175 0 0 0 0 0 0 0 0 0 0 0 0 0 0 0 0 0 0 0 0 0.001090143466665645 0 0 0 0 0 0 0 
0 0 0 0 0 0 0 0 0 0 0 0 0 0 0 0 -0.0001139663855041523 0 0 0 0 0 -0.004239925309317385 0 0 0 0.005376894299803293 0 0.004069397868955428 0 0.009434269284779388 0 0 0 -0.006641799806549245 0 0 0 0 0.009681536575803187 -0.01468847904678111 0 0 0 0.007226021199130296 -0.006642482199659841 0 0 0 0 0 0 0 0 0 0.001457896925633546 0 0 0 0 0 0 0 0 0 0 0 0 0 0 0 0 0 0 0 -0.004178562287222594 0 0 0 -0.006761978817887359 0 0 0 0 0 0 -0.004703352573943755 0 0 0 0 0 0 0 0 0 0 0 0 0 0 0 
0 0 0 0 -0.005145075818990261 0 0 0 0 0 0 0.004716766842842525 0 0 0.009721949559092436 0 0 0 0 0 0.005380562828132336 0 0 0 0 0 0 0 0 0 0 0 0 0.001542175022166442 0.0004525445943494639 0 0 0 0 0 0 0 0 0 -0.0005863956731829031 0 0 0 0 0 0 0 0 0 0 0 0 0 0 0.002052362469188424 0 0 0 0 0 0 0 0 -0.004052103835454676 0 0 0 -0.003723304461687979 -0.006407912553483223 0 0 0 0 0 0 -0.03318328386194643 0 0 0 0 0 0 0 0 0 -0.02114183699380355 0.002692256816722899 0 0 0 0.001739470939660401 0 0 0 0 0 0 
0 0 0 0 0 0 0 0 0 0 0 -0.004775586717046883 0 0 0 0 0 0 0 0 0 0 0 0 0 0 0 0 0 0 0 0 0 0 0 0 0 0 0 0 -0.01319341925754759 0 0 0 0 0 0 0 0 0 0 0 0 0 0 0 0 0 0 0 0 0 0 0 0 0 0 0 0 0 0 0 0 0 0 0 0 0 0 0 0 0 0 0 0 0 0 0 0 0 0 0 0 0 0 0 0 0 0 0 0 0 
-0.002468239988155932 0 0.0001008631216976976 0 0 0 0 -0.005794597088825356 -0.0003943947316953728 0 0 0 0.001768556887812566 0 0.005002057953451582 0 0 -0.000636952615682337 0 0.001323387225303498 0 0.001226937316534512 0.003922426228546514 -0.004652309679122361 -0.001208501854898087 0 0 0 -0.001196853542033312 0 0.0048593707337049 0 0 0.002765260406732163 0 0 0 0 0.007092718633054667 0 0 0 0 0 0 0 0 0 0 0 0 0 -0.0107140676271285 0 0 0 0 0 0 0.00251391723989026 0 0 -0.003477755813240527 0 -0.008399121725232741 0.001666899301252543 0 -0.004711501122737312 0 0 0 0.002316822650850103 0 0 0 0 0.003391693774316406 0 0 0.005759382848721621 0 0.001107999203549788 0 0 -0.006391489221899346 0 0.003338979810095753 0 0 0 -0.000290375003935061 0 0 0 0 0.0005097644755018121 0 0 0 0 0 0 
0 0 -0.006534049103751476 0 0 0 0 0 0.001207121313458225 0 0 0 0.001812317341707159 -0.01435631089625274 0 0 0 0 0.002257279843906479 0.00759734388729748 0 -0.004050257261558811 0.0007181543590827901 0 0 0 0 0 0 0.004819767307543781 0 0 0 0 0 0 7.018669657921096e-005 0 -0.005854145643413224 0 0 0 0 0.006972612468243294 0 0 0 0 0 0 0 0.002519557536869478 0 0.009847031856917227 -0.003934245618396614 0 0 0 0 0 0 0 0 0 0 0 0 0 0 0 0 0 0 0.0001122191004350753 0 0 0 0 0 0 0.008944314058144096 0 0 -0.003855524605183453 0 0 0 0 0 0 0 0 0 -0.002413293592238192 0 0 -0.001765042878600889 0 0 0 0 0 
0 0 0 -0.003653501343877363 0 0 0 0 0.00392961781912534 0 0 0.0006479768998281461 0 0 0 0 0 0 0 -0.00266123512104931 0.002930982393746168 0 0 0 0 0 0.001161726391424429 0 0 0 0 0 0 0 0 0.006842024251053631 -0.0004615644724203805 0 0.004915790128806728 0 0 0.004530671407052404 0 0 0 0 0.0005501685699378145 0 0 0 0 -0.003933946947974068 0 0 0 0 -0.0007405092359689989 0 0 0 0.001940550391811612 0 0 0 0 0 0 0 0 0 0 0 0.0003141270241644847 -0.0004814193119661832 0 0 -0.004116713638048899 -0.0005544228377576576 -0.001984626306317437 0 0 0 0 -0.003451555606343079 0 0 0.0002395538545797281 0 0 0.002880790421902393 0 -0.001011425979459656 0 0 0 0 0 0 0 0 0 -0.004395766675227108 
0 -0.02506644481320184 0.006032762142116962 -0.01725649325274576 0 -0.00864600072013577 0 0 0 -0.00346026387368062 0 -0.006565205212999388 0 0 0 0.002557281315662097 0 0 0 0 0 0 -0.0006659286241616989 0 0 0 0 0.006631277644824738 0 0 0 0 0 0 0 0 0 0 0 0 -0.03377552364868527 0 0 0 0 0 0 0 0 0.05391038051101224 0 0 0 0 0 0 0 0 0.02263675275571693 0 0 0 0 0 0 0 0 0 0 0 0.03219407284699435 0 0 0 0 0 0 0 0.02424380090331817 0 0 0 -0.04933946615382755 -0.004299916197062201 0 0 0 0 0 -0.00134008856655874 0 0 0 0 0 0 -0.0007847958697465746 0 0 0 0 0 
0.02369194162249384 0 0 0 -6.156615122040238e-006 0 0 0 0 0 0 0 0 0.004227506088796733 0 0 -0.001303444735979799 0 0 0 0 0 0 0 0.0002854392265684575 0 0 0 0 0 0.001326682075812651 0 0 0.0004500648728876631 -0.005557573770039061 0 0 0 0 0 -0.001679099797323642 0 0 0.002726664578931299 0.00969978716405405 -0.0004672345601214397 0.00180010436575893 0.002431119237676434 0 0 0 0 -0.006327030779849987 0 -0.001099022798102692 0.008471924748942112 0 -0.00647431842188878 0 0 0 0 0.001620666381408206 0 0 0 0 0 0 0.001546565533292433 0 0 0 0 0.006189083448959847 0 0 0.001299974902727497 0.001404632641871036 -0.002545829512704409 0 0 0 0 0 0 0 0.0002049216335555968 0 0 0.00526019219827977 0 0 -0.001789595593580754 0 0.0006865691879201628 0 0 0 0 0 0 
0 0 0 0 0 0 0 -0.01666074554263033 0 0 0 0.004154815571564628 0 0 0 0 0 0 0 0 0 -0.0004218568979409054 0 0 0 0 0 0 0 0 0 0 0 -0.0004909073556629486 0 0 0 0 0 -4.070824053048344e-005 -0.04803038354817173 0 0 -0.001411036955722515 -0.002660297657186499 0 0 0 0 0 0 0 0 0 0 0 0 0 0 0 0 0 0 0 0 0 0 0 0 0 0 0 0 0 0 0 0.001819460803625047 0 0 0.0009926024757240062 -0.01762766287417465 0 0 0 0 0 0.007762753809465151 -0.006311477340419858 0 0.0005845948569057418 0 0 0 0 -0.006231654675411982 0.001442868463864519 0 0 0 0 0 0 
0 0 -0.00669980246968817 0 0 0 -0.02443268932880018 0 0 0 0 0 0 0.004577363436036548 0 0 0.001815351255826396 0 0 0 0 0 0 0 0 0 0 0 0.001144594882880602 0.002571926446118271 0.001423896581426659 0 -0.004014593224767288 0 0 0 -0.01835324467876925 0 0 0 0.01989615930212664 0 0 0 0.001862670754941994 0 0 0 0 0 0 0.001724485607191252 0 0 0 0 0 0 0 0 0 0 0.001291756889917271 0 0 0.0002356594301465175 0 0 0 0 0 0 0 0 0 0 0 0 -0.006210351653264501 0.007298681478402346 -0.02091667240300682 0 0 0 0 -0.00583043403870194 0 0 0 0 0 0 0 0 0 0 0 0 0 0 0.0002933355546095785 0 
0 0 0 0 0 0 0 0 0 0 0 0 0 0 0 0 0 0 0 0 0 0 0 0 0 0 0 0 0 0 0 0 0 0 0 0 0 0 0 0 0 0 0 0 0 0 0 0 0 0 0 0 0 0 0 0 0 0 0 0 0 0 0 0 0 0 0 0 0 0 0 0 0 -0.001044293247129893 0 0 0 0 0 0 0 0 0 0 0 0 0 0 0 0 0 0 0 0 0 0 0 0 0 0 0 0 
0 0 0 0 0 0 0 0 0.006360183863367874 0 0.002846874427782475 -0.005276636653164984 0.003596741155531719 0 0 0 0 -0.005685180455332345 0 0.0005993842699014388 0 0 0 -0.0003321689804451078 -0.001263230059012705 0 0 0 0 0 0 0.008380600144907159 0 0 0 0 0.01541864183669409 0 0 0.008762825473359215 0.003505190047731512 0 0 0 -0.004710070206187632 0 0 0 0.00473325546688311 0.004743401925787622 0 0.002289823475879823 0 0 -0.0009862878443723927 0 0 0 0.00655929653418333 0 0 0 0 0 0 0 0 0 0 0 0 0 0 0 -0.004761386990112518 0 0 0 0 -0.0219582989330169 0 0 0 0 0 0 0 0 0 0 0.00634638323120915 0 0 0 -0.0004456847035134674 0 0.002378615204231242 -0.007057546871324591 0 0 0.000589161852159442 -0.009181551536491368 
0.003561230562937948 0 0 0.006600942916674459 0 0 0.005249594561706856 0 0.00256536194624513 0 0 -0.02026184891883585 0 0 0 0 0 0 0 0 0 0 0 0 0 0 0 0 0 0 0 0 0 0 0 0 0 -0.001306367269664517 0 0 0 0.003726392398144187 0 0 0 0 0 0 0 0 0 -0.008623599675549976 0 0 0 0 0 0.005452484172312272 0 0 -0.001339783179866278 0 0 0 0 0 0 0 0 0 0 0 0 0 0 0 0 0 -0.002514850427767047 0 -0.0099865291214124 0 0 0 0 0 0 0 0 0 0 0 -0.00261550641441342 0 0 0 0 0 0 0 0 0 
0 0 0 0 0 0 0.002557631247860181 0 0.00155148417609136 0 0.005149510303859231 0 0 0 0 0 0 0 0 0 0.00219904118245547 -0.003415794891107633 0 0 0 0 0 0 0 0.007295374185173745 0 0 0 0 0 -0.004548148936021923 0 0 0 0 0 0 0 0 0 0 0 0 0 0 0 0 0 0 0 0 -0.001600945992219689 -0.00345424897900673 0.002343312419737433 -0.0004367232757743132 0 0 0 -0.01183012178247433 0 0 0 -0.01057471672465649 0 -0.003933316742256526 0 0 -0.0005355568053897657 0 0 0 0 0.001000090366304348 0 0 0 0 0 0 -0.004723159054144269 0 0 0 0 -0.001449785307872179 0 0 0 0 0 0 0 0 0 0.008963988917836946 0 0 
0 0 0 0 0 0 0 0 0 -0.003435276644279382 0 0 -0.00380658741920652 0 0 0 -0.001998844674928029 0.01079488370712059 0 0 0 0 0 0 0.004044474430825193 0 0 0 0 0 0 0 0 0 0 0 -0.01469363316577611 0 0 0 0 -0.0003918290400787708 0 0 0 0 0 0 0 0 0 0 0.001867117246078194 0 0 0 0 0 0 0 0 0 0 0 0 0 0.00183301826675471 0 0 0 0 0 0 0 0 0 0 0 0 0 -0.002197345521263012 0 0 0 0 0 -0.0009525553350288444 0 0 0 0 0 -0.004693956721236026 0.002287692806017587 0 0 0 0 0 0 0 0.006373994219926847 
-0.001984796393848909 0.002894868492669778 0.00128354716143564 0.01079442887975698 0 0 0 0 -0.0005261086298051721 0 0 -0.002723422111826409 0.001195341932145263 0 0 0.001184767115565757 0 0 0 0 0 0 0.006470010559963012 0 -0.005296286123640488 0.001820395396548135 -0.0004092740551488582 0 0 0 0 -0.004804281620260524 0.0001829398662857138 0 0 -0.005901331087227806 0 0 0 -0.002221088668313046 0 -0.000907709545866206 0 0 0 0.005271692579670115 -0.003389186749957932 0.00116201399602807 0 0 0 -0.00113198305224671 0 0 0 0.00502381063586505 -1.027039710690926e-005 0 0.005641570055873774 0 0 0 0 0 0 0 0 0 0 0 -0.0118888836140024 0 0 0 -0.003777424902004602 0 0 0 0.00330478758877859 0 0 0.0005296126435011275 0.007656537013974817 0.002812316390960636 0 0 0 0 -0.0007324986962834575 0.001146850594605534 0 0 0 0 0.001354995175856279 -0.001160149580360518 0 0 0 -0.003516107499691392 0 0.003565117524750414 
0.002009092677005131 0 0 0 0 0 -0.008916101641126127 0 0 0 0 0 0 0 0.002871319439525928 0 0 0 0 0 0.004882129314518282 0 0.004123510899715461 -0.007741742168192851 -0.004210508274914977 0 0 0 0 0 0.006663055148129097 0 0 0 0 0.007418162289202684 0.00581115921567662 0 0 -0.008481869287410661 0.03473494670709802 0 0 0.009165297109549209 0 -0.003924919598898242 0 0.0001368211133589012 0.006139988045911309 0 0 0 0 -0.003404174071630245 0 0 -0.004427417470358746 0 -0.0007969163610847447 0 -0.001327169498472053 0 0 0 0 -0.007241776316827774 0 0 -0.001432386220671027 0 -1.177278964281464e-005 0 -0.001196313912818529 0 0 0 0 0 0 -0.01662226698257498 -0.002818547827624592 0 0 0 0 0 0 0 0 0 0 0 0 0.00476372666663643 0 0 0 0 0 0 0.004138455719728922 0 
0 0 0 0 0 0 0 0 0 0 0 0 0.000912724344969359 0 0 0 0 0 0 0 -0.005159396458175347 -0.004493366551916193 0 0 0 0 0 0.001344548242015459 0 0 0 0 0 0 0 0 -0.01238616692932326 0 -0.00183545286856031 0 0 0 0 0 0 0 0 0 0 0 0 0 0 0 0 0 0 0 0 0 0 0 0 0 0 -0.0009095698841345535 0 0 0 0 0 0 0 -0.004386904753629027 0 0.005469588268585718 -0.001844121914524346 0 0.002139497533428181 0 -0.03110761437947987 0.01496436795999057 0 0 0 0 0.0009305213536143583 0 0 0.002787593627585754 0 0 0 0 0 0 0 0 -0.006256427030519987 0 0 0 
-0.01330994380863104 0 0 0 0 -0.006530255799314167 0 0 0 0 0 0 0 0 0 0 0 0 0 0 0 0 0 0 0 0 0 0 -0.006160292352600343 0 0.0001367232787670366 0 0 0 0 0 0 0.004306648749262068 0 0 0 0 0 0 0 0 0 0 0 0 0 0 0 0 0 0 0.003303520269120516 0 0 0 0 0 0 0 0 0 0 0 -0.001094898182271883 0 0 0 0 0 0 0 0 0 0 0 -0.02798888789976423 0 0 0 0 0 0 0 0 0 0 0 0 0 0 0 0 0 0 0 0 0 
0 0.01640806452755924 0 0 0 0 0.001291926201799072 0 0 0 0 0 0 0 0 0 0 0.002944795148445401 0 0 0 0 0 0 0 0 0 0 0 0 0 0 0 0.004930770768750983 0 0 0 0 0 0 0 0 0 0 0 0 0 0 0 0 0 0 0 0 0 0 0 0 0 0 0 0 0 0 0 0 0 0 0 0 0 0 0 0.003645653265778855 0 0 0 0 0 0 0 0.00251530739479125 0.0008774951117204925 0 0 0 0 0 0 0 0 0 0 0 0 0 0 0 0 -0.001757178146170649 0 0 
0 -0.0001365461742604787 0 0 0 0 0 0 0 -0.005874248747123331 0 0 0 0 0 0 0 0 0 0 0 0 0 0 0.0004351122467030279 0 0 0 0 0 0 -0.003303312788841379 -0.002674940045796432 0 0 0 0 -0.005356454260314291 -0.006942943429591533 0 0 0 0 0 0 0 0.008090384906664524 0 0 0 0 0 0 0 0.0002817561486529245 0 0 0 0 0 0 0 0 0 0 -0.0007489030970227135 0 0 0 -0.01009079433981384 0 0 0 0.01139468980335045 0 -0.003609971995142397 0.005008959525110673 0 0 0 0 0 0 0 0 0 0.009349236715296465 0 0 0 0 0 0 0 -0.003465427737198959 0 0 0 0 0 0 0 
-0.009889486978105253 0 0.004376048156775724 0 0 0.0006841405326175659 -0.001303529779404283 0 0 0 0 0 0 0.0009452417177037197 0 0 0 -0.001644557015336691 0 0 0 0 0 0 -0.003570719499988217 0 0 0 0 0 0 0 0 0 0 0 0 0 0 0 -0.002472355355807047 0 -0.002739227467059186 0 0 0 0 0 0 0.006301188174475961 0 0 0 -0.002271228179234587 0 -0.001803168627766698 0 0.005450171850630034 0 0 0 0 0 0 0 0 0 0 0 0.001756635414860622 0 0 0 -0.004072463426511713 0 -0.005492598050509905 0.001197177440118605 0 0.0009096706593033102 0.02289508758743471 0.01742475761134889 0.001295349412632523 -0.0003379611112773536 0 0 0 -0.001129341688202238 -0.01447446541976436 -0.001640663009596357 0.001186959830781543 0 0 0.01232628468826121 0 0 0 0 -0.004285073692333581 0 0.002107431642309164 0 0 
0 0 -0.0005194524902588758 0 0 0.0002096746977551381 -0.004663639426882032 -0.0001077929354104901 0 0.0009036793778032678 0 0 7.503405431693004e-005 0.001971058104823685 0.001325558020141663 0 -0.0007056141579325319 0 0 0 0 0 0 0.004994695146755067 0 0 0.00014669732394928 3.250381042609059e-005 0.002193876537987042 0 -0.005998919083811427 0.003389970401121574 0 0 0 0 0 -0.001905139834961466 0.002024286663732158 0.002654838300688235 0.02574349552042892 0.005868636909849107 0 -0.003090576439942381 0 0 0 0.005192937928180888 0 0 -0.01022056218831938 0 -0.00255430326956212 0 0 0.002005558250838031 0 0 -0.0003414598235944807 0 0 0 -0.002857226897687952 0.001782607895588156 0.006257738899325885 -0.0009575702502998787 0 0.004444200307460718 0 0 0 0 0 0 0 0 -0.002060985887216739 0 -0.007049079970106012 0.004361317467218768 0.001717402872753932 0 0 0.003038571019831671 0.002054476626891418 0.004025433439859807 0 0 0 -0.002467867433571712 -0.001868667892342692 0 0 -0.006986487207531067 0.0008224532292907899 -0.0006895915276851496 0 0 0 0.005728873911672999 0 0 
-0.009115290467780046 0.012011646350241 0 -0.005929364696759758 0 0 0 0 -0.0003320207486579675 0 0.002087089622093029 0 0.0003054756371281494 -0.002361652880571722 0 0 -0.002421455704139451 0 0 0.001002763441234122 -0.005025073706365644 0 0 0 0 0 0 0.002199355653779639 0 0.0003323361300018589 0 0 0 0 0.0002712366501462202 0.002395569983030521 0.0001337586306395869 0 0 0 0.006515693041574643 0 0 0.001071448659183234 -0.002022921720607684 0 0 0 -0.001130219097305889 0.004809396172656319 0 0 0 0.0004915980795301803 0 0.002447196533350296 0 0.001977545411339379 0 -0.0006369255137442982 0 0.003834742648267659 0.00224076941058934 0 0.002077589530769848 0 -0.005274959275738277 0 0 -0.003106206455169277 0.001350075144748066 -0.002038333697809633 0 0 -0.003980297238620098 0 0 0 -0.008954986480668635 0.006863169327969917 0.01691700756597881 -0.0002831816144138425 -0.01202323721562723 0 0 -0.001053153294581379 0 -0.005699629219557913 -0.007310139010993412 0.002687424863232411 0.002589180075932209 0 0 0 0.0009892699060187651 0 0 0.002638629974650882 0.002526751568100854 0 0 0.009593920009807945 
0 0 0 0 0 0 0 0 0 0 0 0 0 0 0 0 0 0 0 0 0 0 0 0.003590010951535555 0 0 0 0 0 0 0 0 0 0 0 0 0 0 0 0 0 0 0 -0.001821515449801407 -0.0100436031479051 0 0 0 0.005983205965054484 0 0 0 0 0 0 0 0 0 0 0 0 0 0 0 0 0 0 0 0 0 0 0 0 0 0 0 0 0 0 0 -0.01517296288366637 0 0 0 0.0008943824567041837 0 0 0 0 0 0 0 0 0 0 0 0 0 0 0 0 0 
0 0 0 0 0 0 0 0 0 0 0 0 0 0 0.00418933489344545 0 0 0 0 0 0 -0.0005631820658161264 0.001803826081256032 0 0 0 0 0 0 0 0 0 0 0 0 0 0 0 0 0 0 0 0 0 0 0 0 0 0 0 0 0 0 0 0 0 0 -0.001973222273061926 0 0 0 0.000985510832740453 0 0 0 0 0.006851233413753318 0.0005939180980060341 0 -0.003921259869007618 0 0 -0.001170563558638395 0 -0.009412131279803384 0.002962294552823502 0 0 0 0 0 0 0.00204748770839197 0 0 0 0 0 0 0 0 0.01217807640758845 0 0 0 0 0 0 0.002805724833145517 0 -0.006099936591820953 -0.003364267333998252 
0.01390760873584071 0 0 0 0 0.004532061572662826 0 0 0 0 -0.00746295613218444 0.01365595312597632 -0.005238301744637838 0 0 0 0 -0.003734728527909439 0 0 0 0 0 -0.005791821669374991 0 0 -0.001788173021863093 0 -0.00190152065271355 0 0 0 0 0 0 0 0 0 0 0 -0.004786557520725732 0 0 0 0 0 0 0 0 0 0 0 0 0 0 0 0 0.0003723437098484194 0 0 0 0 0 0 0 0 0 0 0 0 -0.004395560488637389 0.0002859800279114698 0.004674416912298822 0 0 0 0 0 0 0 0 0 0 0 0 0 0 0 0 0 0 0.007766859944966651 0 0 0 0 0.004655262001944219 0 0 0 0 0 
-0.008454247946284509 0 0.002928172956082223 0 0 -0.000713660245174122 0 0 0 0 0 0 0 0 0 0 0 0.004077106567520065 0 0 0 0 0 0 0 0 0 0 0 0 0 0 0 0 0 0 0 0 0 0 0.0154025691966927 0 0 0 0 0 0 0 0 0 0 0 0 0 0 0.001420976393319035 0 -0.0008500030191750652 0 0.003259710887552854 0 0 0 0 0 0 0 0 0 0 0 0 0 0.03356750745756805 0 0 0 0 0 0 0 0 0 0 0 0 -0.01141907288917108 0 0 0 0 0 0 0 0 0 0 0 0 0 0 0 
0 0 0 0 -0.0003792223612652974 0 0 0 0 0 0 0 0 0 0 0 0 -0.00632958703327767 0 0 0 0 0 0 0 0 0 0 0 0 0 0 0.004256910828915689 0 0 0 0.003804234367055224 -0.0003140790980005206 0.00531883249259594 -0.01036700256987944 -0.02141550648191276 0 0 0 0.001232707506362421 0 0 -0.01725351692806508 0 0.001113765758271506 -0.001171269105323078 0.00772100505748822 0 0 0 0 -0.002773252429936551 0 0 0 0 0 0 0 0 0 0 0 0 0 0 0 0 0 0.001267653658528314 0 0 0 0 0.002724041582250341 0 0 0 -1.505380593753837e-005 0 0 -0.001704600994098586 0.0009369298313078069 0 0 0 -0.0004372866113309618 0 0 0 0 0 0 0 0 0.00256129387169624 0 
0 0 0 0 0 0 0 0 0 0 0 0 0 0 0 0 0 0.004871376049033383 0 0 0 0 0 0.001505818658349782 0 0 0 0 0 0 0 0 0 0 0 0 0 -0.002994706297107286 0 0 0 0 0 0.005766726000001513 0 0 0 0 0 0 0 0 0 0 0 0 0 0 0 0 -0.002115579462802498 0 0 0 0 0 0 0 0 0 0 0 0 0 0 0 0 0 0 0 0 0 0 0 0 0 0 0 0 0 0 0 0 0 0 0 0 0 0 0 0 0 
0 0 -0.007738355550453873 0 0 0 0.005182979713712024 0 0 0 0.003327286718754611 -0.01718038505915284 0 0 0 0 0 0 0 0 0 0 0.001281146078312186 0.0002827325994799057 7.915716577314593e-005 -0.009029795731739863 0.008190562766153025 0 0 0 -7.706696953712366e-005 0 0 0 -0.006227637147744008 0 0 0 0.0004753234809680862 0.006084307254489297 0 0 0 0 0.002141104023585666 -0.005104954857112219 0 -0.001142215276117119 -0.0001864995744923261 0 0 -0.003032170362961026 0 0 -0.001245260774804602 0 0 0 0 0 0 0 0 0.001847516078967506 0 0 0 0 0.003956931267109856 0 0.006732771059125857 0 0.00358311138966273 0 0 -0.006736725852625391 0 0.001629377276844571 0 0.001371016905182741 0 0 -0.0001755395736729773 -8.808424054313282e-005 0 0 -0.00373734584118767 0 -0.003687896792461865 0 0 0 0 0 0 0 0 0 0 0 0.004492112357554035 0 
-0.0146208762751195 0.002624901679808934 0 0 0 0 0 0 0 0 0 0 0 0.0049211265742569 0.00598988937489656 0 0 0 0 0 -0.0003082026436345548 0 0 0.005650746434476933 0 0 0 0 -0.001011075388791902 0 0 0 0 0 0 0 -0.0004894791598958295 0 0 0 -0.005805100566609037 0 0 0 0 0.002680972912194241 0 0.002075891030900378 0 0 0 0 0 0 0 0 0 0 0 0 0 0 0 0 0 0 -0.0003965698164562256 0 0 0 0 0 0 0 0 0.009780583060469498 0 0 0 0 -0.0278607115207716 -0.0005735600169917288 0 0 0 0 0 0 0 0 0 -0.007272467294084915 0 0 0 0 0 0 0 0 0 0 
0 0 0 0 0 0 -0.01319708332810611 0 0 0 0 0 0 0 0 0 0 0 0 0 0 0 0 0 0 0 0 -0.003819756274476064 0 0 0 -0.001636613710183052 0 0 0 0 0 0 0 0 0 0 0 0 0 0.007695767892443667 0 0 0 0 -0.001610731160789406 0 -0.006225550322167728 0 0 0 0 0 -0.0001379969611371735 0.003516342211115053 0 0 0.00128080120104709 0 0 0 0 -0.001053259785751306 0 0 0 0 0 0 0.008656066771429249 0 0 0 0 0 0 0 -0.005343795008289926 0 0 0 0 0 0 0 0 0 0 0 0 0.001154193780107004 0 0 0 0 0 0 
0.009182628152892629 -0.004311887942288611 0 0 0 0 -0.008211352931622885 0 0 0 0 0 0.002576005372387495 0 0.008167067389056872 0 -0.006241786036923367 0 0 -0.003394593974222221 0 0 0 0 0 -0.002697239275826048 0 0 0.003000339920560217 0 -0.001760544016172723 0 0 0 0 0 0 0 0 -0.005994246903539247 0 0 -0.0008106009877133208 0 -0.001785663981809911 0 0 0 0 0 0 0 0.001272106540046802 0 0 0 0.001237159503464896 0 0 -0.0003933644997573505 0 0 0 -0.003646729611048059 0 0 0 0 0 0 0 0.00702726698015568 0 -0.005621254171203257 0 -0.00575243414313305 0 0 0 -0.03570474974106137 0 0 0 0 0 0 0 0 0 0 0.006773269969730572 0 0 0 0 0 0 0.006363206312637415 -0.001050645772406927 0 0.009340286679972113 0 
-0.01381214401263859 0 0 0 0 0 0 0 0 0 0 0 0 0 0 0 0 0 0 0 0 0 -0.004666518630547612 0 0 0 0 0 0 0 0 0 0 0 0 0 0 0 0 0 0 0 0 0 0 0 0 0 0 0 0 0 0 0 0 0 0 0 0 0 0 0 0 0 0 0 0 0 -0.01384566913834042 0 -0.007068322007243862 0 0 -0.0008588773892312175 0 0 0 0 0.0198207502094339 -0.01083604304082067 -0.01353602514086975 0 0 0 0 0 0 0 0 0 -0.002975766644337706 0 0 0 0 0 0 0 0 0 0 0 
0 0 0 0 0 0 0 0 0 0 0 0 0 0.008553724085496562 0 0 0 0 0.002956600847152658 0 0 -0.007611996067970553 0 0 0 0 0 0 0 0 -0.009096773454541549 0 0 0 0 0 0.001040815672119994 0 0 0 0.03147889611533303 0 0 0 -0.007164322531326954 0 0 0 0 0 0 0.006744380560626798 0 0 0.000465402287076911 0.00576141614036403 0 0 0 0 0 0 0 0 0 0 -0.004799949098561305 0 0 0 0 0 0 0 0 0 0 0 0 0 0 0 0.005905617785536874 0 0 0 -0.00150635450815625 0 0 -0.01060460710435556 0 -0.004321981902074402 0 0 0 0 0 0 0 0 0 0 
0 0 0 0 0 0 0 0.007205682808435506 0 0 0 0 0 0 0 0 0 0 0 -0.0004354207535574245 -0.0005175239034680317 0 0 0 0 0 0 0 0 0 0 -0.009751438038596402 0 0 0 -0.002854676337019411 0 0 0 0 0 0 0 0 0 0 0 -0.009329431545248958 0 0 0 0.01093672071332469 0 0 -0.004738079059311052 0 0 0 0.0003062215731001311 0 0 0 0 0 0 0 0 0 0.00475849788281237 0 0 0.005207213740230293 0 0 0.008494243634733018 0 0 0 0 -0.02111462991612818 0.002112727913683921 0 0 3.244709022379664e-005 0 0 0 0 0 0 0 0 -0.006178897011760732 0.01769519174639486 0 0 0 0 -0.0007223258756859312 0 0 0 
0 0.005085309268172407 0 0 6.822515987114829e-007 0 -0.002886302206620364 0 0 0 0 0 -0.00138287640400934 0 0 -0.001349321209704158 0 0 -0.0002246181002684378 -0.004718227966583585 -0.006524829047295077 0 0 0 -0.0002126007484815716 0.0006869342383734554 0 0 0 0 0 0 0 0.002063782812116427 0 0 0 0 0 0 -0.03634544265163597 0 0.008448379289095288 0 0 0 0 0 0 -0.001061542710708817 0 0 0 0.004543341331797366 0 0 0 0 0 0 0 0 0 0 0 0 0 0 0 0 0 0 0 0 0 0 -0.004661359758590811 0 0 -0.007266042087010071 0 0 0 0 0 0 0 0 0 0 0 0 0.0009570951390990377 0 0 0 0 0 0 0 0 0 
0 0 0 0 0 0 -0.0006916386680592423 0 0 0 0 -0.003658721020171332 -0.01669327530850273 0 0 0 0 0 0 0 0 0 0 0 0 0 0 0 0 0 0 0 0 0 0 0 0.0010115256035384 0 0 0 0 0.006049585394288033 0 0 0 0 -0.0024239808535729 0 -0.004092458375350849 0 0 0 0 0 0 0 0 0 0 0 0 0 0 0 0 0 0 0 0 0 0 0 0 0 0 0 0 0.001864410924231285 0 0 -0.0001726500223289861 0 0 0 0 0 0 0 0.006790912602451287 0 0 -0.004145552507050212 0 0 0 0 0 0 0 0 0 0 
0 0.01702152694043985 0 0 0 -0.003705040514632023 -0.01942635117495569 0 0 0 0 0.00969307786007997 0 0 0 0 0 0 0 0 0 0 0 0 0 0 0 0 0 0 0 0 0 0 0 0 0 0 0 0 0 0 0 0 0 0 0 0 0 0 0 0 -0.02966362470141284 0 0.003929996397732015 0 0 0 -0.00290438085525869 0 0 0 0 0 0 0 0 0 0 0 0 0 0 0 0 0 0 0 0 0 0 -0.002232009123911028 0 0 0 0 0 -0.0283951762051329 0 0 0 0.01244017658400696 0 0 0 0 0 0 0 0 0 0 
0 0 -0.008856493702141786 0 0 0 0 0 0 0 0 0 0 0 0 0 0 0 0 0 0 0 0 0 0 0 0 0 0 0 0 0 0 0 0 0 0 0 0 0 0 0 0 0 0 0 0 0 0 0 0 0 0 0 0 0 0 0 0 0 0 0 0 0 0 0 0 0 0 0 0 0 0 0 0 0 0.0006400401877124216 0 0 0 0 0 0 0 0 0.003085929216131251 0 0 0 0 0 0 -1.711231077672397e-005 0 0 0 0 0 0 0 0 0 
-0.00541885400026499 0 0 0 0 0 0 0 0 0 0 0 0 0 0 0.01685988438693862 0 0 0 0 0 -0.001359759093997653 0 0 0 0 0 0 0 0 0 0 0 0 0 0 0 0 0 0 0 0 0 0 0 0 0 0 0 0 0 0 0 0 0 0 0 0 0 0 0 0 0 0 0 0 0 0 0 0 0 0 0 0 0 0 0 0 0 0 0 0 0 0 0 0 0 0 0 0 0 0 0 0 0 0 0 0 0 0 0 0.007734898272189031 
-0.08027692101355897 0 0 0 0 0 0 0 0 0 0 0 0 0 -0.0006763476616863434 0.05704921950799749 0 0 0 0 0 0 0 0 0 0 0 0 0 0 0 0 0 0 0 0 0 0 0 0 0 0 0 0 0.003860163700803272 0 0 0 0 0 -0.006249517487466137 0 0 0 0 0 0 0 0 0 0 0 0 0 0 0 0 0 0 0 0 0 0 0 0 0 0 0 0 0 0 0 0 0 0 0 0 0 0 0 0 0 0 0 0 0 0 0 0 0 0 0 
0 0 0 0 0 0 0 0 0 0 0 0 0 0 0 0 0 0 0 0 0 -0.001734329701801002 0 0 -0.001900558784584319 0 0 0 0 0 0 0 0 0 0 0 0.002577357704991892 0 0 -0.004351512249282606 0.01847071497887634 0 0 0 0 0 0 0 0 0 0 0 0 0 0 0 0 0 0 0 0 0 0 0 0 -0.0003548616222479019 0 0 0 0.01379766374608633 0 0 0 0 0 0 0 0 0 -0.01211011979399522 0 -0.001501823366675757 0 0 0 0 0 0 0 0 0 0 0 -0.01035092408328824 0.004093963237551073 0 0 0 0.001163032263830239 0 0 0 
-0.004148969356982434 -0.004731700200400352 0.0005057902117911409 0 0 0 -0.0006140472206136662 0 0 0 0.002091202704909203 0 0 0 0 -0.001521971669505139 0 0 0 0 0 0 0 0 0 0 0 0 0 0 -0.000493767216381141 0.001991913306668604 0 0 0 0 -0.00481706774666526 0 0.001501923325148245 0 0.01246431455818025 0 -0.01856670230524406 0 0 0.008255271589905227 -0.001442430454895588 0 0 0 0 -0.005081260819805611 -0.004027035016833836 0.002262285014858425 0 0 0 0 0 0 0 -0.001393952823114508 0.001575487863165375 0 0 -0.00453266284553639 -0.002698616455573472 0 0 0.003902174929172605 0 0.002761892481748525 0 0 0 0 0 0 0 0 0 0 -0.00026469735977428 -0.001341747581770626 0 0 0.01012709912768556 0 0 0 0 -0.007148579741464979 0 0 -0.002183948963726463 0.001754677985240021 0 0 -0.00163333171026214 0 0 0.001846975400837722 
0 0 0 0.005188814411059948 0 0 0 0 0 0 0 0 -0.000233984829773356 0.001567983211500759 0 0 0 0 0 0 0.004124885992316319 0 -0.0009839938814180046 0 0 0 0 0 0 0 0 0 0 0 0 0 -0.007775538519817463 0 0.0001643630460944373 -0.003547097621993285 0.02722244961857679 0 0 0 -0.008595293093059625 0 0 0 0 0 0 0 0 0 0.006536638750394998 0 0 0 0 0 0 0 0 0 0 0 -0.004941653574629673 0 0 0 0 0 0 0 0 0 0 0 0 -0.02066444828060593 0 -0.000265555512302584 0 -0.0004405098859956514 0 0 0 0 0 0 0 0 0 0.0002466626126615989 0 0 0 0 -0.001506661324197487 0 0 0 
0 0 0 0 0 9.268414716906366e-005 0 0 -0.005517289794113678 0 0 0 0 0 0 0 0 0 0.006859728911119326 0 0 0 0.001357023064664661 0 0 0.001208143754024231 0 0 0 0 0.003223399388860581 0 0.001664989181924041 0 -0.0008868274413859689 -0.003138750897134696 0.02191789928795777 0 0 0 -0.004736769735229606 -0.0006857814904011178 0 0.0002679008352211329 0 0 0 0 0 -0.0005597480968913641 -0.002997500359801179 0 0.003947424557458741 -0.002930493973376682 0 0 0 0.005533536816161998 0 0 0 0 0 0 0.009338070363952108 -5.390315543616556e-005 0 0 0 0 0 0 0 0 0 0 0 0 0 0 0 0 0 0 0 0 0 0 0 0.001370075653631539 0 0 0 0 0 0 0 0 0 0 0 0 
0 0 0 0 0 0 -0.002343103757685519 0 0 0 -0.001828422308934707 0 0 0 0 0 0 0 0 0 0.005657743654079553 -0.006408579279718715 0 0 0 -0.001256169734094748 0.009731555115311432 0 0 0 0 0 0 0 0 0 0.0007871611311055519 0 0 0 0 0 0 0.001125459050913387 0 0 0 0 0 0 0 -0.008561953732598068 0 0 0.001480636804773231 0 0 0 0 0 0 0 0 0 0 -0.004541968255909495 0 -2.073081769517338e-005 0 0 0.001668479159073561 0 0 0 0 0 0 0 0 0 0 0 0 0 0 -0.006926438591669115 0 0.0004649338676045806 -0.0004140059665207779 0 0 -0.0002044875376988233 0 0 0 0 0 0 -0.0002779307471194323 0 0 0 
0 0 0 -0.0004745573945552796 0 0 0 0 0 0 0 0.01134993955151599 0 0 0 0 0 0 0 0 0 0 0 0.003683754683872198 -0.0004918104959662952 0 -0.004330816710380389 0 0 0 0 0 0 -0.006110486255463823 0 0 0.006958864106311005 0 0 0 -0.01613134606770908 0 0 0 0 0 0 0 0 0 0 0 0 0 0 -0.0009227031415706593 0 0 0 0 0 0 0 0 0 0 0 0 0 0.006682428625991024 0 0 0 0 0.00376542102100547 0 0 0 0 -0.00949119642317261 0 0 -0.001492491990840194 0 0 0 0 0 0 0 0 0.01109252079026806 0 0 0 0 0 0 0 0 0 0 
0 0 0 0 0 0 0 -0.0008140812382354798 0 0 0 -0.01316293938764877 0 0 0 0.008719873368327526 0 0 0 0 0 0 0 0 0 0 0 0.0005844416813737735 0 0 0 0 0 -0.006648227873738902 0 0 0 0 0 0 -0.01193458470731606 0 0 0 0 0 0 0 0 -0.006205717367058127 0.009156933766086962 0 0 0 0 0 0 0 0 0 0 0 0 0.00878933963202779 0 0 0 0 0 0 0 0 0.003426219989357225 -0.007392661799517501 0 0 0 0 0 0 0 0 0 0 0 0 0.005040363287801185 0 0 0 0 0 0 0 0 0 0 0 0 0 0 0 
0 0 0 0 0 0 -0.003365125441358777 0 0 0 0 -0.003210217972532875 0 0 0 0 0 0 0 0 0 0 0 0 0 0.0004794687263717305 0 -0.0008190194905295657 0 -0.007612189835236401 0 0 0 -0.002709150912227532 0 0 0 0 0 0 0 0 0.0003469958265016208 0 0 0 0 0 0 0.001734362612026871 0.0002403739051258322 0.005444671949168796 0 0.0103410876262049 0 0 0 0 0 0 0 0 0 0.008275432144308675 0 0.005916615249610472 0 0.002045439795239701 0 0 -9.587237131978075e-006 -0.002776455078937008 0 0 0.001637089121439148 0 0 0 0 0 0 0 0 -0.00424938654143286 0 0 0.00113265213737572 -0.002663235700065254 0.004069078905281129 0 0 0 -0.005403188766963689 0 0 0 0 0 0 0 0.0066487044069249 0 
-0.001723854697927008 0 0 0 0 0 0 0 0 0 0 0 0 0 0 0 0.003263621502022733 0 0 0 0 0 0 0 0 0 0 0 0 0 0 0 0 0.009964647088240746 0 0 0 -0.01914680114821482 0 0 0.01258191067895327 0 0 0.0006870327034459384 0 0 0.002354064235242403 0 -0.0004108142888261493 0 0 0 0 0 0 0 0 0 0 0 0 0 -0.00195470623835437 0 0 0 0 0 0 0.003981184325877493 0 0 0 0 -0.00823841058255642 -0.003263656495752252 0 0 0 -0.007427283164248467 0.009575666569647258 0 0 0 0 0 0 0 0 0 0 0 0 0.001151320548195693 0 0 0 0 0 0 0 0 
0 0 0.01052221212337705 0 -0.003927398214527021 0 0 0 0 0 0 0 0 0.002459718547960323 0 0 0 0 0 0 0.002830415873376955 0 0 0 0 0 0.003572579910064285 0 0 -0.001675714474558829 0 0 -0.0005457642737232465 0 0 0 -0.006643293776399726 0 0 0.004504565638795066 0 0 -0.01674521386355198 0 0 0.003983126044612976 0.002612420473820285 -0.0107951330299333 0.002415442185674257 0 0 0 0 0 0 0 0 0 0 0 0 0.002303382403710149 0 0 0 0 0 0 0.004009053752836419 0.005919203969239596 0 0 0 -0.003447869971211556 0 0 -0.002904481035071247 0 0 0.003889722626249951 -0.005780110294874322 -0.002833924184023366 0 0.006293928090045703 -0.003139187291066881 0.003756219383452678 0 0 0 0 0 0 0.005598628800247299 0 0 0 -0.001509173687674197 0 0 -0.0006190886985709608 0 0 
0 0 0 0 0 -0.000488900793975873 0.008164329591864901 0 0 0 0 0 0 0 0 0 0 0 0 0 0 0 0 0 0 0 0 0 0 0 0 0 0 0 0 0 0 0 0 0 0 0 0 -0.01260531546202001 0 0 0 0 0 0 0 0 0 0 0 0 0 0 0.01708892739791201 0 0.003867465369940184 0 0 0 0 0 0 0 0 0 0 -0.01076027141421231 0 0 0 0 0 0 0 0 0.01806724765398898 -0.007207229686866495 0 0 0 0 -3.87407850510538e-005 0 0 0 0 0 0 0.0007476559566219644 0 0 0 0 0 0 0 0 
-0.01030789442524653 0 0 0 0 0 0 0 -0.0003469645074011093 0 0 0 0 0 0 0 0 0 0 0 0 -0.002211878942582959 0 0.009401300172771767 0 0 0 0 0.006424704157732003 0 0 0 0 0 0 0 0 0 0 0.01019105999818316 -0.02758262776733688 0 0 0 0 0 0 0 0 0 -0.0008017825003109234 0 -0.0009587503068222074 0 0 0 0 -0.00245493229884684 0.04457498105378173 0 0 0 0 0 0 0 -0.009397822614084464 0 0 0 0 0 0 0 0 0 0 0 0 0 0 0 0.001583760062756225 0 0 0 -0.002030350036882882 0 0 0 0.00167869921279543 0 0 0 0 0 0 0 -0.005753574297155731 0 0 0 
-0.01379564996288198 0.01037093010955265 0 0.01276103574047899 0 0 0 0 0 0 0 0.008297816277425128 0 0 0.002963384196673851 0 0 0 0 0 0 0 0 0 0 0 0 0 0.004651486283610322 0.001642355162135917 0 0 0 0 0 0 0 0 0 0 0.0311104734606975 0 0 -0.002025445104608174 0.002821828116762314 0 0 0 -0.002121093574955235 0 0 0 0 0 0 0 0 0 0 0 0 0 0 0 0 0 0 0 0 0 0 0 0 0 -0.001529275821346635 0 0 0 0 0.003280689938736665 0 0 0 0 0 0 0 0 0 0 0 0 0 0 0 0 0 0 0 0 0 -0.002672140729520364 
0 0 0 0 0 0 -0.01420362044344545 0 0 0 0 0 0 0 0 -0.01024011664258586 0 0 0 0 0 0 0 -0.004396314659271762 0 0 0 0 0 0.0001705553045622301 -0.0003149712747791143 0 0 0 0 0 0 0 0 0 0.006466809148294513 0 0 0 0.006682653107263426 0 0 0 0 0 0 0 0 0 0 0 0 0 -0.004427881072635957 0 0 0 -0.01038912134701289 0 0 0 0 0 -0.001326188482351428 0 0 -0.001455630984251421 0 0 0.00451952387644126 0.0003350345471257712 0 -0.004271176673585445 0 0 0 0 0 0 0 0 0.007868772717618978 0 0 0 0.003807618915769159 0 0 0 0 0 0 0 0 0 0 0 
0 0 0 -0.006104350514653093 0.0004403510299242909 0 0.009366771824728724 0 0 0 0 0 0 0 0 0 0 0.004147279951363514 0 -0.0007430877829114064 0 0 0 0 0.002779119163736229 -0.003909636172481719 0 -0.0001573063805078494 -0.001151320701760925 0 -0.0004989853487957234 0 -0.003742857426903098 0 0 0 0 0 0 -0.007480228110316655 0 0 0 0 0 0 0.001597400364923229 0 0 0.0007294951923305745 0 0.001388327832196371 0 0 0 0.003087163103027027 0 0 0 0 -0.001322050430849022 0.0040536005760371 0 0 0 0 0 0 0 0.003369769979789583 0 -0.00237930251754131 0.0004653877312318857 0 0 0 0 0 -0.00443545408685325 0.02090588659434303 0 0.00622831138647126 0 0 -0.004923403861833683 0 0 -0.002497071977238535 0 0 -0.0003378629613287871 0 0 0 0.01925392725846964 0 0 0 0.004954415515800816 0.0003221467203434476 -0.007324070084121709 0 
0 0 0 -0.002457529019991243 0 0 0 0 0 0 0 0 0 0 -0.0003361670851048578 0 0 0 -0.001594410923735253 0 -0.003538060203035339 0 0 0 0.005875099412943417 0 0 0.005183154272301392 0 0 0 0 0 0 -0.00177851869926202 0 -0.004978732561249176 0 0 0 -0.01593076211248646 0 0 0.004425341503537282 0.00633562253210201 0 0 -0.00170456120958418 0 0 0 0.002188098295378176 0 0 0 0 0 0 0 0 0 0 0 0 0 0 0 0 -0.00240229507276009 0 0.0002276307791071876 0 -0.002769706391951139 0 0 0 0 0 0 0 0 0 0 0 0 0 0.01093209561102611 0 0 0 0 0 0 0 0 0 0 0 0.0005567109682216476 0 -0.00432072739429041 0 
0 0 0 0 0 0 0.1160345007686668 -0.006351417916624985 0.005779048625462304 0 0 0 0 0 0 0 0 0 0 0.001051132786790234 0 0 0 0 0 0 0 0 0 0 0 0 0 0 0 0 0 0 0 -0.006732784422265784 0 0 0 0 0 0 0 0 0 0 0 0 0 0 0 0 0 0 0 0 0 0 0 0 0 0 0 0 0 0 0 0 -0.001744423023145508 0 -0.001522002322139867 0 0 0 0 0.007707008441458494 0 0 0 0 0 0 -0.0009054983674045565 0 0 0 0 0 0 0 0 0 0 0 0 0 0 0 
0 0 0 0.002469827255396657 0 0 0.01956539182822009 0 0 0 0 0 0 0.01547890793376815 0 0 0 0 0 0 0 0 0 0 0 0 0 0 0 -0.007728316200336352 0 0 0 0 0 0 0 0 0 0 0 0 0 0 0 0 0 0 0 0 0 0 0 0 0 -0.005347578230989776 0.00184745860408526 0 -0.001502149770086847 0 0 0 0 0 0 0 0 0 0 0 0 0 0 0 0 0 0 0 0 0 0 0 0 0 0 0 0 0 0 0 0 0 0 0 0 0 0 0 0 0 0 0 
-0.003806700920740895 0 -0.000446429442236493 0 0 -0.0001002361264257532 0 0 0 0 0.01046237523125165 0.01533010082244546 0 0 -0.000233719693393228 0 0 0.0008185066614616169 0 0 0 0.0003463348253351698 0 0.001148680145222051 0 -0.001035283616721758 -0.0004700540513903656 0 0 0.0006575194325375214 0 0 0.00783281581606983 0 0 0 -0.003521646220856362 -0.001025885367386749 0 0 0.002989194014453513 0 0 0 0 -0.006666825593010893 0 0.002685133586715337 0.001598475073216963 0.006184069948298186 0 -0.0002549821345444324 0 0.001028523596166234 -0.003946025850412639 0 -0.002896961475973961 0.00175521031426048 0 -0.0005160008284972775 0 0 0.002225664448143243 0 0.000342270343021812 0 0 0 -0.001304845327716318 0 0.0008894074756913545 0 0.003711678734078844 0 0 0 0.006941971338326692 0 2.274922207892104e-005 0 0.01388095174514453 0 0 -0.0006778683845239957 0 -0.002213891786430642 0 0 0 0 -0.004163826368123165 0 0 0 0 0 0 0 0 0 0 -0.003118097674909314 
0 0 0 0 0 0 -0.006936954239248673 0.001820706980527924 0.01154441104236283 0 0 0 0 0 0 0 0.0003423345838669667 0 0 0 0 0 0 0 0 0 0 0 0 0 0 0 0 0.003607034482844992 0 0 0 0 0 0.0001140371105372013 0 0 0 0 0 0 0 0 0 0 0 0 0 0 0 0 0.0006412921379811593 0 0 0 0 0.0001816185823907672 0 0 0 0 0 0 0 0 0 0 0 0 0 0 0 0 0 -0.01315832298281234 0 0 0 0 -0.001809448692119831 0 -0.0007385634044300917 0 0.0009382153624877913 0 0.0002509710395027171 0 0 0 0 0.005105475130432755 0 0.003266923761140634 0 0 0 -0.005568755545199426 
0 0 0 0 0 0 0 0 0 0 0 0 0 0 0 0.002984180671231918 0 0 0 0 0 0 0 0 0 0 0 0 -0.0005483042687481591 0 0 0 0 0 0 0 -0.01941866587089957 0 0 0 0 0 0 0 0 0 0 0 0 0 0 0 0 0.0004895595569655063 0 0 0 -0.003824834056570716 0 0.0001842480768803542 0 0 0 0 0.009322946407763121 0 0 -0.0104009112725521 0 0 0 0 0 0 0 0 0 0 0 0 0.02538119282030255 0 0.002661026811627732 0 0 0 0 0.000584093281468686 0 0 0 0 0 0 0 0 0.001874926758655113 0.006521685839863483 0 0 0 0 
0 0 -0.002038516737848225 -0.0146245694812407 0 0 -0.004100771138438994 0 0 0 0 0 0 0 0 0 0 0 0 0 0.0109653329254861 0 -0.005604860764236412 0 0 0.01040377554439971 0 0 0 0.00021654697845917 0 0 0 0 0 0 0 0 0 0 0.05964615235181389 0 0 0 0.005960291743254234 0 0 0 0 0 0 0 0 0.01162541233333355 0 0 0 0 0 0 0 0 0 0 0 0 0 0 0 0 0 0 0 0 0 0 0 -0.003249611650495488 0 0 -0.05334042050093038 0 0 0 0 0 0 0 0 0 0 0 0 0 0 0 0 0 0 0 0 0 
-0.00899429459192843 0 0 0 0 0 0 0 0 0 0 0 0.0006052781850848907 0 0 0 0 0.003380558717483527 0 -0.003687829738724029 0 0 0 0 0.003225957949050657 0 0 0 0 0 0 0.001023253615478496 0 0.005661148042126523 0 0 0 0 0 0 0.005460645549542715 0 0 -0.0001458573998831512 -0.002714373852145259 0 0 -0.005393605000608548 0 0 0 0 0 0 0 0 0 0 0 0 0 0 -0.005013373041100402 0 0 0 0 0 0 0 0 0.002774456580196209 0 -0.003722216714338609 0.00404672287937858 0 0 0 0 -0.01285010366025461 -0.03974205596172148 0 0 0 0 -0.007963822080315779 -0.004531894404710376 0 0 0 0 0 0 0 0 -0.001421111316433866 0 0 0 0 0 0 
0 0 0 0 0 0 0 0 0 0 0 0 0 0 0 0 0 0 0 0.003760903147397131 0 0 0 0 -0.004259110303353156 0 0 0 0 0 0 0 0.02444380684191473 -0.01464476585801031 0 0 0 0.004172823377881608 0 0 0 0 0 0 0 -0.003829558783188376 0 0 0 0 0 0 0 0 0.003791212210698429 -0.01194530838843267 0 0 0 0 -0.002580798282459986 0 0 0 0 0 0 0 -0.001123000605379714 0 0 0 0 0 0 0.006722265192877062 -0.007968558745212405 0 0.002662820805412091 0.04379600714748873 0.009307657500157321 0 0 0 0 0 0 0 0 0 0 0 0 0 0 0 0 -0.006601189614297729 0.003577215070807104 0 0 0 
0 0 0 0 0 0 0 0 0 0 0 0 0 0 0 0 0 0 0 0 0 0 0 0 0 0 0 0 0 0 0 0 0 0 0 0 0 0 0 0 0 0 0 0 0 0 0 0 0 0 0 0 0 0 0 -0.008437325893125054 0 0 0 0 0 0 0 0 0 0 0 0 0 0 0 0 0 0 0 0 0 0 0 0 0 0 0 0 0 0 0 0 0 0 0 0 0 0 0 0 0 0 0 0 0 0 
0 0 0 0 0 0 0 0 0 0 0 0 0 0.001287950778130905 0.001563506583460703 0 0 0 0 0 -0.004994265714110089 -0.001749576659615909 0 0 0 0 0 0 0 0 0 0 0 0 0 0 0 0 -0.00806440986455861 0 0 0 0 0 0 0 0 0 0 0 0 0 0 0 0 0 0 0 -0.03447276530854282 -0.0004793353281184773 0 0 0 0 0 0 0 0 0 0 0.000829829183807328 0 0 0 0 0 0 0 0 0 0 0 0 0 0 0 0 0 0 0 -0.003656201550880268 0 0 0 0 0 0 0 0.004681504262510959 0 0 0 
0 -0.006088769432180076 0 0 0 0 0 0 0 0.001773364465691034 0.009664586470729484 0 0 0 0 0 0 0 0 0 0 -0.005396896181837662 0 -0.0001093727771971711 0 0 0 0 0 0 0 0 0 0.003337556750765092 0 -0.00422339867301984 0 0 0 0 0 0 0 0 0 0 0 0 0 0 0 0 0 0 0 -0.002449842982671988 0 -0.0001104043332884976 0 0 0.001360448835899773 0 0 -0.001249085332619338 0.002446010087421121 0 -0.001045565760256571 0.005878730258479275 0 0 0.0001994877439156066 -0.007260837399263893 0.002087991809656693 0 0 -0.0003514913165868204 0.008306044131861859 -0.00613743272789817 0 0 -0.002735243445339275 0 0 0 0 -0.003706141378918029 0 0 0 0 0 0 -0.001279836204657143 0 0 0 0 0 0 0 0 0 
0 0 0 -0.004138449226910453 0.001227398962145082 0 0 0 0 -0.001936861254447953 0 0 0 0 0 0 0 0 0 0 0.0005926088241862274 0 0 0 0 0 0 0 0 0 0.0007500262168158908 0 0 0 0 0 0 0 0 0 -0.009129334925859739 0 0 0 0.004933308099632691 0 0 0 -0.02044681981941869 -0.003299660186658574 0 0.0113485069315791 -0.001407783908980008 0 -0.002504249214151019 0 0 0 0.003434157240927015 0.001428833353153606 0 0 0.008856236779189172 0 0 0 -0.001162661786680759 0 0 0 0 0.003065885944612294 0 0 0 0 0 0 0 0 0 0 0 0 -0.0015220430056827 0 0 0 -0.0006849811227470229 0 0 0 0 0 0 0 -0.002001559421485199 0 0 0 0 0 
0 0 0 -0.002280046175602696 0 0 0 0 0 0.002479517602612582 0 -0.008803088740353213 0 0 0.002544302911643293 0 0 0 -0.000300651353350116 0 0.0004705466162241104 -0.0009937265314661538 0 0 0 0 0 -0.003382013303076816 0 0 -0.002433270851530158 0 0 0 0 0.001301430917736713 0 -0.001099318519506725 0 0.0141984736736952 -0.01533507673153466 0.003065877384356581 0 0 0 -0.006070709348321458 0 0 0 0 0 0.004606624562870349 0 0 -0.001995920466353045 0 0 0 0 0 0 0 0 0 0 0 0.00263396377799329 0 0 0.0008029888386486486 0 0 0 -0.0006253492117346688 0 0 0 0 0.001886900011962825 -0.009541129777229608 0 0 -0.005202823921919014 0 0 0 0.003547028181623745 0 0 0 0 0 0 0.0004699225866876179 0 -0.005925142977280621 0 0 0 0 0 -0.003994877891833974 
0 0.01232498578806396 0 0 -0.002708139980281514 -0.008177768924165186 0.01106370615040589 0 0 0 -0.002454113348161079 0 0 0 0 0 0 0 0 0 0.003696909152364342 0 0 0 0 -0.0008977151200095362 0 0 -0.005077447315533384 0 0 0 0 0 0 0 0 0 0 -0.0005137819269748461 0 0 -0.00164173073043623 0 0 0 0 0 0 0 0 0 0 0 0 -0.01351482332801595 0 0 0 0 0 0.004095257626451122 0 0 0 0 0.001865823391185472 0 0 0 0 0 0 0 -0.00124943466860147 0.0001301863852508442 0 0 0 -0.009501240675338212 0 0 0.002973079604037793 0 0 0 0.006234256616156016 0 0 0 0 0 0 0.005537882871454497 0 0 0 0 0.009326832708381996 0 0 -0.0001161023782070419 
0 0 0.006808869789520297 0 0 0 0.01532158164854141 0 0 0 0 0 0 0 0 -0.00536120510109249 0 0 0 0 0 0.0008771954136851066 0 0.0004281611853477516 0 0 0 0.0003869546015486878 0 0 0 0 -0.002602521153935267 0 0 0 0 0 0 0 0 0.004590938928076797 0 0 0.0006050409252331422 0 0 -0.00257186436550357 0 -0.007378635564944458 0 0 0 0 0 0 0 0 -0.0007678961998322178 0 0 0.0008054170991674234 0 0 0 0 0 0 0 0 0 0 -0.001563146781461388 0 0 0 0 0 0 0 0 0 0 0 0 0 0 0 -0.006065845385509654 0 0 0 0 0 0 0 0 0 0 0 0 0 
0 0.002547230319367307 0 0 0 0 -0.003696798644150791 0 0 0 0 0 0 0.002211266336316672 -0.0009225082934537109 0 0.002400180332248525 -0.01332824432823001 0 0 0 -0.004262097204413601 0 0 0 0.003326240263047383 0 0 0 0.001058191801107233 0 -0.0006542341794890949 -0.006737194653612729 0 -0.001885760564674965 0 0 0.001891081372758583 0.005318536802275137 -0.009139640111164329 -0.01730772026468601 0 0 0 0 0 -0.002534544107448749 0.001734919625450536 0 0.004691711103891355 0 0 -0.00271880045466545 0.00593779515069769 -0.0001397196719452807 0.001199953798702262 0 0 0 0.003363759458614618 0 0 0 0.0005639099405748743 0 0 0 0.0006734930914669649 0.006861032973668479 0.0007718882418154603 0 0 0 -0.007703233015957587 0 0 -0.002328720614807398 0 0 0 0.004263872502920384 0.005172812649985735 -0.001936718665358124 0 0 0 0 0 0 0 0 0 0.0004449186945479353 0.00615816489118935 0 -0.005022987066967158 0 0 0.000241189496582047 0.002998393463623379 0 -0.000499029203518786 
0 0.007750918189734625 0 0 0 0 0 0 0 0 0.00230167995178026 0.009676315146323182 0 0.002651374947266698 0 -0.007060919294504654 0 0 0 0 0 0 -0.007043460805288873 0 0 0 0 0 -9.967471489922369e-007 0.005209378736198223 -0.002916913270519237 0 0 0 0 0 0.007887284172156306 0 -0.0003736275791300931 0 0 0 0.005654463453400612 0 0 0 0 0 0 0 0 0 0 0 0 0 0 0.003031903385480701 0 0.002135737740452825 0 0 0 -3.351847651300272e-005 -0.00143398225137455 0 -0.002563228880636878 0 0 0 0 0 0 0 0 0 0 0 0 -0.02665439633796403 0.01302500987503808 0 0 -0.0005560711141388107 0.003569870197195614 0 0 0 0 0 0 0 0 0 0 0.0002865451371612316 0 0 0 0 0 0 
-0.002285362597660648 0 0 0 0 -0.0005386373113952553 0 0 0 0 0 0 -0.0007355202398050432 0 -0.002227699475413946 0 0 0 0 0 0 0 0 0 0 0 0.003003225943660112 -0.00506203532245812 0 0 0 0.001115620781696437 0 0 -0.002227563530831473 0 0 0 0 0 0.00578106854798438 0 0 0 0 0 0.003174615092926935 0 0 0.001694754817717808 0 0.00613772274365264 0.003680834091813501 0.01014958809029515 0 0 0.002237059133329706 0.00982922480606048 0 0.0002583906748434571 0 0 0 0 0 0 0 0 0 0 -0.002437154876349807 0 0 0 -0.006311245058149052 0 0 0 0 0 -0.01083492554838897 -0.0009222080592230118 0.001108421732478444 0.008714390738217148 0 0 0 0 0 0 -0.001384313784558934 0 0 0 0 0.001037957085445468 0 0 0 -0.00869200222619456 0 -0.002076465685799901 
-0.003483429343306445 0 0.004336291326792896 0.003237889144828204 1.503050801088725e-005 0.002485073056131602 0 0.002291405251544597 0 -0.001829783511153946 0 0 0 0 0 5.910075726287013e-005 0 0.0008815706913453532 0 0 0.001068443027881647 -0.003058459905007608 0 0 0 -0.004618987416705111 0 0 0 -0.01481170302700152 0 0.001721685088420148 0.0004183839830465137 0 0 -0.00489232843319942 -0.002252318399830809 0 0.001388568701540829 0 0.01885610852312943 0 0 0 0 0.001579977041763143 0.002670035702057374 0 0.002942052388178046 -0.00142278508676255 0.001672720475532885 0 0.0007427049311019575 0.0006150161912032149 0 0 0 0 0 0 0 -0.001573116858117152 -0.0006107999632210144 0 -0.000391264590988336 0 -0.00217758480080376 0 -0.01040206994835113 0 0 0.001411134313196137 -0.0006521670826344804 -0.0118482418479282 -0.004670980957481149 0.001461800820244678 0 0 -0.001888135613058176 0.003974501762526428 0 0 0 0.01389500248860176 0 0 0 0.003393043838839798 0 -0.004032089295384626 0 0 0.00603031692932274 0 0.00136247176877103 0 0 -0.003976159599099562 0.002681960659232076 0 -0.001165574434423925 0 
0 0 0 0 0 0 0 0 0 0 0 0.01198361828571538 -0.002395554761709419 0 0 0.001240464876894897 0 0 0 -0.004782505794221782 0 0 0 0 0 0 0 0 0 0 0 0 0 0 0 0 0 0 0 0 0 0 0 0 0 0 0 0 0 0 0 0 0 0 0 0 0 0 0 0 0 0 0 0 0 0 0 0 0 0 0 0 0 0 -0.0006696877389893353 0 0 0 0 0 0 0 0 0 0 0 0 0 0 0.0003437745944236726 0 0.008586242278619439 0 0 0 0 0.001068956541948312 0 0.004667839197685509 0 0 0 
0 0 0 0 0 0 0.0101559913029647 0 0 0 0 0 0 0 0 -0.002253771936725765 0 0 0.0001647731243982989 -0.004114432973265436 0 1.916572601667536e-005 0 0 0 0.002723036350769889 0.0001410996012611201 -0.002027877672751197 0 0 0.001432828392755895 0 0 0 0 0 -0.03367869875225708 0.004814948869584893 0 0 0 0 0 0 0 0 0 0 0 0 0 0.008878902670972801 0 0 0 0 0.004532437051751562 0.003065411707943807 0 0 0 0 0 0 0 0 0 0 0 0 0 0 0 0 0 -0.0003143572303576559 0 0 0 0.009561366446227841 0 0 -0.0007412465434833238 0 0.004375062398863812 0 -0.01133812485562424 0 0 0 0 0 -0.009178377542035468 0 0.002954430614081485 -0.001626592711202656 0 -0.005080578134171121 0 0 0 0 
0 0 0 0 0 0 0.004104558694591249 0 0 0 0 0 0 0 0 0 0 0 0 0 0 0 0 0 0 0 0 0 0 0 0.001334591037722287 0 0 0 0 0 0 0 -0.005755556886045402 0 -0.01015737312039221 0 0 0 0 0 0.0007394937149590517 0 0 0 0 0 0 -0.0004993841478142443 0 0.0003665892433602852 0 0.001864491577728167 0 0 0 0 0 0 0 0 0 0 0 0 0 0 0 0 0 0 0 0 0 0 0 0 0 0 0 0 0 0 0 0 0 0 0 0 0 0 0 0 0 0 0 0 
0 0.001518608599204466 0 0 0.00304907322744988 0.006559545502134904 0 0 -0.00381524129960695 0 0.004849290393299017 0 0 0 0 -0.007833975964770788 0 -0.006850151485812261 0 -0.0108890476939395 0 0 0 0 0 -0.001495351507052685 -0.001587851563453229 0 0 0 0 0 0 0 -0.001278979773276021 0 0 0 0.001265352375688254 0.005651748698825692 0 -0.008732843500656097 0 0 0 0 0 -3.289911785412229e-005 0 0.007678405748056858 0.0003052561561197665 0 0 0 -0.008150767536781605 -0.005611246151564928 0 0 0 0 0 0 0.009520491857289742 0 0 0 0 0 0.005778929146678252 0 0 0 0 0 0 0 0 -0.003871474917636977 0 0 0.0005690478630516277 0.009707871103105437 0 0 0 0 0 0.005060682302644275 0 0 0 0 0 0 0 0 0 0 0 0 0 0 
0.0001436785950560794 0 0 -0.0002935050896920481 0 0 -0.0144017415094036 0 0 0 0 0 0 0 0 0 0 0 0 0 0 0 0 0.002160739995576185 0 0.001438845223347569 0 0 0 0 0 0 0 0 0 0.01284449849484909 -0.0005485288238650337 0 0 0 0.03229452945519164 0.001804404504412458 0 0 0 0 0 0 0 0 0.001234773787957978 0 0 0 0 -0.003187241492369201 0 0 0 0 0 0 0 0 0 0 0 0 0 0 0 0 0 0.002458123052631218 0 0 0 0 0 0 0.01978842539310982 0 0 0 -7.756023858190935e-005 0 -0.003480307007643069 0 0 0 0 0 0 0 0 -0.007295688629011463 0.001797229334752138 0 0 0 0 0 
0 0 0 0 0 0 0 0 0 0 0 0 0 0 0 0 0 0 0 0 0 0 0 0 0 0 0 0 -0.004064778767636335 0 0 0 0 0 0 0 -0.008095137233260571 -0.001800943328667884 0.001563062647858807 0 0 0 0 0 0 0 0 0 0 0 0.0008867127952854755 0 0.004216323426627705 0 0 0 0 0 0 0 0 0 -0.003656335831660868 0 0 0 0 0 0 0 0 0 0 0 0 0 0 0 0 0.002279606854877407 0 -0.001480924152920501 0 0 0 0 0 0 0 -0.003666318313311477 -0.002968288511024234 0 0 0 0 0 0 -0.01121751801057048 0 0 0 0 
0 0 0 0 0 0 0 0 0 0 0 0 0 0 0 0 0 0 0 -0.007227864792924256 0 0 0 0 0 0 0 0 0 9.323768730706482e-005 0 0 0 0 -0.0008001102265877321 0 0 0 0 0 0 0 0 0 0 0 0 0 0 0 -0.001161831911533145 0 0 0 0 0 0 0 0 0 0 0 0 0 0 0.007711599092130653 0 0 0 0 0 0 0.003320195158563173 0 0 0 0 0 0 0 0 0 0 0.01687335182598505 0.01177797040310403 0 0 0.001570047886146928 0 0 0 0 0 0 0 0 0.002244110002338943 0 0 0.0007877602078631651 0 0 
0.01562667211578197 0.001457820390350174 0 0 0 0 0 0 0 0 0 0 0 0 0 0 0 0 0.0004506663517991368 0 0 -0.007083898347371224 -0.008836782595411411 0 0.002080169147114134 0 0 0.01481804776019126 0 0 -4.454741016552191e-005 0 0 0 0 0 0 0 -0.0008252171045442921 0 0 0 0.006943526200202626 0 0 0 0 0 0 0 0 0 0 0 0 0 0 0 0 0 0 0 -0.006891777890743081 -0.007792499555806005 0 -0.008173319045531476 0 0 0 0 0 0 0.008505202000714156 -0.0009909959927086735 0 0 0 0 0 0.01428229046620607 0 0 0 0.0007082552208522844 -0.001993538453437636 0 0 0 0 0 0 -0.007162314030144616 0 0 0 0 0 0.004375782969306776 0 0 0 0 
0 0 0 0 -0.0002545054449202829 -0.001864425996859938 0 0.004732486588964502 0 0 0 0 0 0 0 0 0 0 0.002907763594257124 0 0 0 -0.001003244264218409 0 0 0.01290590254426507 0 0 -0.008685082395237923 0 0 0 0 -0.0008521977584774014 0 0 -0.02120502725255308 0 0 0 0 0 -0.0008422866765490731 0 0.0004659741666383932 0 0 -0.002819857370599466 0 0 0 0 0 0 0 0 0 0 0 0 0 0 0.0127408627492828 0 0 0 0 0 0 0 0 0 0 -0.001491013688269216 0 0.005354253547643397 0.0005593011557768995 0 0 -0.02180863866033169 0.01080799726906884 0.002861541401357268 0 0 0 0 0 -8.01845068172033e-006 0 0 0 0 0 0 0 0 0 0 0 0 0 0 
0 0 0 0.005764049258202227 0 0 0 0 0 0 0.0006295344259225547 0 0 -0.003369118803449128 0 0 0 0 0 0 0 0 0 0 0 0 0 0 0 0 0 0 0 0 0 0 0 0 0 0 -0.004410201873463752 0 0 0 0 0 0 0 0 0 0 0 -0.006711554531134401 0.0007411320982461348 0 0 0 0 0 0 0 0 0 0 0 -0.001747996027186567 0 0 0 0 0 0 0 0 0 0 0 0 0 0 0 0 0 0 0 0 0 0 -0.0008125732005062571 0.00316005114268614 0 0 0 0 0 0.000199469919512992 0 0 0.007068901475136338 0 0 0 
0 0 0 0 0.001173118420054899 0 0 0 0.003113159172969158 0 -0.004474413779854834 0 0 0 0 -0.008252414398392183 0 0 0 0 0 0 0 0 0 0 0 0 0 0 0 0 0 0 0 0 0 0 0 0 0 -0.002555781852595842 0 0 -0.000972699897873393 0 -0.0003847203777325886 -0.001659836541345059 0 0 0 0 0 0 0.001525213581648334 0 0 0.000555151099013095 0 0 0 -0.0005449398542806304 0 0 0 0 0 0.004312506468420841 0 0 0 -0.007477247902892534 0 -5.631251075383917e-005 0 0 0.0007948568281692289 0 0 -0.008402814449126918 0 0 0 -0.002693033497690506 0 0 0 0 0 0 0 0 0 0.0123211341988165 0 0 0 0 0 0 0 0 
0 0 0 0 0 0 0 0 0 0 0 0 0 -0.006099446378803591 0 0 -0.005208815057202043 0 0 0 0 0 -0.0007545808794229229 0 0 0 0 0 0 0 0 0 0 0 0 0 0.008453677942374281 0 0 0 0.009257679406140432 0 0 0 0 0 0 0 0 0 0 0 0 0 0 0 0 0 0 0 0 0 0 0 0 0 0 0 0 0 0 0 0 0 0.001382416918382416 0 0 0 0 0.006232277577914106 0 0 -0.003389266227709421 0 0 0 0 0 0.009406207472845396 0 0 0 0 0 0 0 0.006211830487295315 0 0 0 0 0 
0 0 0 0 0 0 0 0 0 0 0 0 0 0 0 0 0 0 -0.005477675102874173 0 0 0 0 0 0 0 0 0 0 0 0 0.01153504502280403 0 0 0 0 0 0 0 -0.01163139545171115 0.008086456202293965 0 0 0 0 0 0 0 0 0 0 0 0 0 0 0 0 0 0 0 0 0 0 0 0 0 0 0 0 0.008703094184594954 -0.004558578527696257 0 0 0 0 0 0 0 0 0.0005972708431903461 0 0 0 0 0 0 0 0 0 0 0 0 0 0 0 0 0 0 0 0 0 0 
0 0 0 0 0 0 0 0 0 0.01123965132045532 0 0 0 0 0 0 0.002124780559415509 0 0 0 -0.002313302127691804 0 0 0 0 0 0 0 0 0 0 0 0.002999150201599745 0 0 -0.000136752487857685 0 0 0 0 0 0.004666499324729062 0 0 0 0 0 -0.006936650015890013 0 0 0 0 -0.001155778826324446 0 0 0 0 0 0 -0.006314983287643701 0 0 0 0 -0.00452144211829145 0 0 0 0 0 0 0 -0.002138730880109106 0.001757202784663321 0 0 0 0 0.001205524729604902 0.005399667714452976 0 0 0 -0.001263629591115405 0 0 0 0 0 0 0 0 0 0 -0.00200943171370502 0 0 0 0 0 0 0 
0 0 0 0 0 0 0 -0.001023472552542897 0 0 0 0.01066354729359948 0 0 0 0 0 -0.007735522113668406 0 0 -0.007159160170236203 0 0.006714692184304443 0 0.00268395528743367 0 0 0 -0.0002311732039880435 -0.0001369833226933474 0 0.002709662083689072 0 0 0 0 -0.01445568858964394 -0.002204114520335994 -0.001265403125602318 0 0 0 -0.002062795191251402 0 0.0008675656783890874 0 0.004420607295415192 0 0 0 0 0 0 0 0 0.003086250309152563 0 0 0 0 0.00399431911294152 0 0 0.001124268948905605 0 0 0 0 0 0 0 0 0 0 -0.004918322188688584 0.005353948260852061 0 -0.0006231746874391956 0 0 0 -0.0009922172776618639 -0.0009608688747992588 0 0 0 -0.001946307831668333 0 0 0 0 0 0 0.0009635858860310829 0 0 0 0 0 0 0 -0.001405312518456035 
0 -0.01220462216265925 0 0.005379983119834807 0 -0.008744018447617531 0 0 0 0 -0.002740072056880806 0 0 0 -0.000647514059686616 0 0 0 0 0 0 0 0 0 0 0 0 0 0 0 -0.002728686836471816 0 0 0 0 0 0 0 0 -0.0003508508745721312 0 0.002837819887189844 0 0 0 0 0 0 0 -0.005370405020846754 0 0 -0.0009193186376456145 0.006881397364286323 0 0 0 -0.004234746160903111 0 0 0 0.00329557915804021 0 0 0 0 0 0 0 0 0 0 0 0 0 0 0 0 0 0 0 0 -0.01014133919822695 -0.008729925428559797 0 0 0 0 0 0 0 0 0 0 -0.004898250487617799 0 0 0 0 0 0 0 
0 0 0 0 0 0 0 0 0 0 0 -0.004664213833728721 0 0 0 0 0 -0.00257669734013358 0 0 0 0 0 0 0 0 0 0 0 0 0 0 0 0 0 0 0 0 0 0 -0.01037669580814222 0 0 0 0.004666792634380303 0 0 -0.003089802090005484 0 0 0 0.0105313416893799 0 0 0 0 0 0 0 0 0 0 0 0 0 0 0 -4.765336901598741e-005 0 0 0 0 0 0 0 0 0 0 0 0 0 0 0 0.003738594381108811 0 0 0 0 0.004273077362470727 0 0 0 0 -0.0003298040616777726 0 0 -0.003027755880999691 0 0 0 0 0 
0.001664493413367711 0 0 0 0 0 0 0 0 0 0 0 0 -0.007854867438250479 0 0 0 0 0 0 0 0 0 0 0 0 0 0 0 0 0 0 0 0 0 0 0 0 0 0 0 0.001286387753609961 0 0 0 -0.01655207329369111 0 -0.0005551443763654417 0 0 0 0 0 0 0 0 0 0 0 0 0 0 0 0 0 -0.006907852235747434 0 0 0 0 0 0 0 0 0 0 0.004854336720331233 0 0 0 0 0 0 0 0 0 0 0 0 -0.005852672865104398 0 0 0 0 0 0 0.005542698942114422 0.009888165551803033 0 0 -0.001066824223537477 0 
0.01323759219070284 0 0 0 0 0 0 0 0 0 0 0 0 0 0 0 0 0 0 0 0 -0.002482758617674132 0 0 0 0 0 0 0 0 0 0 0 0 0 0 0 0 0 0 0 0 0 0 0 0 0 0 0 0 0 0 0 0 0 0 0 0 0 0 0 0 0 0 0 0 0 0 0 0 0 0 0 0 0 0 0 0 0 0.005732267619136834 0.02815618433967792 0 0 0 0 0 0.002569418264085088 0 0.01234741482651364 0 -0.005379719991358785 0 0.0009878351255727985 0 -0.001147508459273678 0 0 0 0 0 0 0 
0 0 0 0 0 0 0 0 0 0.006398274752235752 0 0 0 0 0 0 0 0 0 0 0 0 0 0 0 0 -0.003876430355826743 0 0 0 0 0 0 0 0.0002693710736640051 0 -0.02201968539857016 0 0 0 0 0 0 0 0 0 0 0 0 0 0 0 0 0 0 0 0 0 0 0 0 0 0 0 0 0 0 0 0 0 0 0 0 0 0 0 0 0 0 0 0 0 0 0 0 0 0 0 0 0 0 0 0 0 0 0 0 0 0 0 0 0 
0 0 0 0 0 0 0 0 0 0 0 -0.01700241233044131 0 -0.005215218889713038 0 0 0 0 0 0 0 0 0 0 0 0 0 0 0 0 0 0 0 0 0 0 0.02693610690343914 0 0 0 0 0 0 0 -0.01654762825693909 0 0 0 0 0 0.01258561906654445 0 0 0 0 0 -0.001675641085212227 0 0 0 0 0 0 0 0 0 0 0 0 0 0 0 0.0008741389396969024 0 0 0 0 0 0 0 0 0 0 0 0 0 0 0 0 0 0 0 0 0 0 0 0 0 0 0 0 0 
0 0 0 0 0 0 0 0 0 0 0 0 0 0 0 0 0 0 0 0 0 0 0 0 0 0 0 0 0 0 0 0 0 0 0 0 0 0 0 0 0 0 0 0 0 0 0.004194714669636957 0 0 0 0 0 0 0 0 0 0 0 0 0 0 0 0 0 0 0 0 0 0 0 0 0 0 0 0 0 0 0 0 0 0 0 0 0 -0.002261707390292445 0 0 0 0 0 0 0 0 0 0 0 0 0 0.001348062563566399 0.009843389346608224 0 0 
-0.01280311987554006 -0.001196084823804849 0 0 0 0 -0.006250211205480145 0 0 0 0 0.003615733940415296 0 0 0 0 0 0 0 0 0 0 0 0.003856647324940246 -0.007197929786778147 0 0 0 0 0 0 0 0 0 0 0 -0.002994006587313689 0 0 0 0.0003722036870972305 0.003152621545199543 0 0 0 0 0 0 0 -0.002033123002997774 0 0 0 0 0 0 0 0 0 0 0 0 0 0 0 0 0 0 0 0 0.0009752640150498504 0 -0.001677827165920425 0 0 0 0 0 0 0.02031593375762227 0 -0.001964070524673139 0.00130064167309319 0 0.005349238507365435 0 0 0.008346963125352993 0 0 0 0 0 0 0 0 -0.002272715313230716 -0.007832176441992713 0 0.002900000465168145 0.001698222372789378 0 
0 0 0 0.00099906121274716 0 0 0.01367808665564086 0 0 0 0 0 0 0 0 0 0 0 0 0 0 0 0 0 0 0 0 0 0 0 0 0 0 0 0 0 0 0 0 0 0 0 0 0 0 0 0 -0.01017285844659864 0.006818128104291246 0.0006256977089532479 0 0 0 0 0 0 0 0 0 -0.004740999571314928 0 0 -0.004638158695828914 0 0 0 0 0 0 0 0 0 0 0 0 0 0 -6.853661588899513e-005 0 0 0.01051818002927287 0 0 0 0 0 -0.006496997631908873 0 0 0 0.002872487512678207 0 0.0007601546226752093 0 0 0 0 0 0 0 0 0 
0 0 0 0 0 -0.008414337048283597 0 0 0 0 0 0 0 0 0 0 0 0 0 0 0 0 0 0 0 0 0 0 0 0 0 0 0 0 0 0 0 0.00208967142358813 0 0.001457836983191581 0.005431658880290747 0 0 -0.001885041388971332 0 0 0 0 0 -0.007780329753090403 0 0.001277376381008767 0 0 0 0 0 0 0 0 0 0.002544180206814957 0 0 0 0 0 0 0.00463467987781417 0 0 -0.004972010922707628 0 0 0 0 0 0 0 -0.006225796781923591 0.01652336769901363 0 0 0 0 0 0 -0.007190076074934426 0 0 0 0 0 0 0 -0.0004824550273202762 0 0 0 0 0 0 
0 0 0 0 0 0 0 0 0 0 0 0 0 0 0 0 0 0 0.009047437089028202 0 0 0 0 0 0 0 0 -0.0005864403336441896 0 -0.000770254601362862 0 0 0 0 0 0 0 0 0 0 -0.006266587614910476 0 0 -0.009607247489248887 0 -0.004786623464347727 0 0 0 0 0 0 0 0.01773043670385797 0 0 0 0 -0.002531701838691813 0 0 0 0 0 0 0 0 0 0 0 0 -0.002738718544025177 0 0 0 0 0 0 0 0 0 0 0 0 0.01128567643061973 0 0 0 0 0 0 0 0 0 0 0 0 0 0 0 0 0 
-0.01048707526181974 -0.007646980057997762 0 0 0 0 0 -0.004640355187971561 0 0 0 0 0 -0.008711845622800153 0 0 0 0 0 0 0 0 0.002481547956224289 0 0 0 0 0 0 0 0 0.00225517943197418 0 0 0 0 0 0 0.001192292020956295 0 0 0 -0.0007936031977966284 0 0 0 0 0 0 0 0 0 0 0 0 0 0 0 0.01172327794089961 0 0 -0.01053802654822272 0 0 0 0 0 0 0 -0.002831606638348416 0 -0.004400370954980786 0 0 0 0.0004696223275241567 0 0 0.001553539747495751 0.0001553921374886307 0.003660052423987952 -0.001604942233075923 0 0 0 0 0 0 0 0 0.004228928888691306 0 0 0 0 0 0 0 0.0006227052820732328 0.001363426300647123 0 0 
0 -0.01033739547228399 0 0 0 0.003484865287211567 0.0110373195679953 0 0 0 -8.658889476484653e-005 0 0 0 -0.002528181795554257 0 0 0.001750148720389204 0 0 0 0 0 0 0.002327742636149973 0 0 0 -0.0004542509843704708 0 0 0 0 0 0 0 0 0 0 0 0 0 0 -0.007957688202475848 0 0.001105410004670234 -0.001585065395438655 0 0 0 0 0 0 0 0 -0.0007235721025612095 0 0 0 0 0 0 0 0.003202499992545005 0 0 0 0 0 0 0.001562009871474349 0 0 0 0 0 0 0 0 -0.002636033641215457 0 0.009529463660645637 0 0 0 0 0 0 0 0 0 0 0 0 0 0 -0.007132842600838079 0 0 0 -0.006075970737859224 0 
0.0005403699918355366 0 0 0 0 0 0.02947544217937637 0 0 0 -6.72575881712565e-005 0 0 0 0 0 0 0 0 0 0 -0.008525777663175671 0 0 0 -0.0001971390100482963 0 0 0.0006166602943476018 0 0 0 0 0 -0.00146718898799519 0 0 0 0 0 -0.02540540685259137 0 0 0 0 0 0 0.01715945731078286 0 0 0 0 0 0 0 0 0 0 0 0 0 0 0 0 0.004977789452999727 0 0 0 0 0 0 0 0 -0.005474581766856798 0 0 0 0 -0.00145030866426965 -0.02081455159275203 0 0 0.006274137397993481 0 0 0 0 0 0 0 0 0 0 0 0 0 -0.001962773585275512 0 0 0 0 0 
0 0 0 0 0 -0.0003700268018158274 0 0 0 0.007361115368667334 -0.008220491122023919 0 0 0 0 0 0 0 0 -0.008831598875560643 0 0 0.002079465602883422 -0.003092458449626421 -0.0002326826183509986 0 0 0 0 0 -0.001865755437735665 0 0 -0.002248725739887654 0 0 0.003204111279814988 0 0 0 0 0 0 0 0 0 0 0 -0.0009867178417630542 0 0 -0.005037725894164302 0 0 0 -0.005510142670939984 0 0 -0.01356299277554993 0 0 0 0 0 0 0 0 0 0 0 0 0 0 0 0 0 -0.001817955674328955 0 0 -0.004255488315332405 0 0 0 0 0 -0.0002772458365233063 -0.006148456388037404 0 0 0 0.001055307067310774 0 0.01390560306275119 0 0.005200973147904583 0 0 0 0 0 0.003669823512984157 0 
0 -0.009799255522035122 0 0 0 0.00146200149334286 0 0 -0.005036773147301114 0 0 0.003220123908685944 0.0001330558094204832 -0.002438073853875978 -0.001741294871421595 0.001602030534625484 0 0.0002857315076582901 0 0 0 0 -0.003695315949258205 0 0 0 0 0 0 -9.405975512276812e-005 0 0 0 0 0 0 0 0 0.00166350577406767 0 0 -5.769620314620067e-005 0 -0.002001592646140799 0 0 0 0 0 0 0 0 0 0 0 -0.001005578157289753 0 0 -0.003498303179360747 0 0 0 0.003939004566385039 0 0 0 0 0 0 0 0 0 0 0 0 0 0.005107162083819831 -0.005265454490924536 0 0 -0.005227384914408969 0 0 -0.001051135392969341 0 0.003694588821886923 0 0 -0.004241410298439375 0 0.0001357879866259474 0 0 0 0 0 0 0 0.00814897342632569 0 0 0 
0 -0.005739185390334653 0 0 0.002312565457484497 0 -0.0063810680206003 0 0 0 -0.004906863933266192 0 0 0 0 0 -0.0009355583205669236 0 0 0 0 0 0 0 0 0 0 0 0 0 0 0 0 0 0 0 0 0 0 0 0 0 0.01251220184852092 0 0 0 0 0 0 0 0 0 0 0 0 -0.000103802575476845 0 0 0 0 0 0 0.002049657199533966 0.002414995094091801 0 0.0001552178051297152 0.003072410337503871 0 0 0 0 0 0 0 0 0 0 0.00281065718578605 0 0 0 0.002834157758297819 -0.003475872557499611 0 0 0 0 0 0 0 0 0 0 0.0003823363877452508 0 0 0 0 0 0 0 0 
0 0 0 0 0.004452936246007338 0 0 0 0 0 0 0 -0.0009237611684590236 0 0 0 0 0 0 0 0 0.003304660127564229 0 0 0 0 -0.0003031623097102336 0 0 0 0 0 0 0 0 0 0 0 0 0 0 0 0 0 0 0 0 0 0 0 0 -0.003005201125825493 0 0 0 0 0 0 0 0 0 0 0 0 0 0 0 0 0 -0.006644904673042956 0 -0.0006706051269055432 0 0 0.008596790331419971 0 0 -0.001001025155236421 0 0 0 0 0 -0.006327940401948276 0 0 0 0 0 0 0 -0.0006956968876205233 0 0 0 0 0 0 0 0 0 0 
0 0 0 0 0 0 -0.008381898013954753 0 0 0 0 -0.008576566391729771 0 0 0 0 0.0004336905045972725 0 0 0 0 0 0 -0.0008621361702553077 0 0 0 0 0 0 0 0 0 0 0 0 0 0 -0.008592145541067199 0 0 0 0 0.004966968466041877 0 0 0.00126281800285222 0 0 0 0 0 0 0 0 0 0 0 0 0 0.00113771731409292 0 0.00203147637183154 0 0 0 0 0.001836802942636486 0 0 0 0 0 0 0 0 0 0 0.001338697079462674 0 0 0 0 0 0 0 0 0 0 0 0 0 -0.003827190914811751 0 0 0 0 0 0 0 0 0 
0 0 0 0.0006242347046686575 0 -4.147049671581019e-005 0 0 0 0 0 0 0 0 0 0 0 0 0 0 0 0 0 0 0 0 0 0 -0.003256180267470592 0 0 0 0 0.01084032078899261 0 0 0 0 0 0.005690454968350538 0.02195539348682785 0 0 0 0 0.001609580134700733 -0.009499631089406119 0 0 0 0 0.00711177443721335 0 0 0.0005190021646175159 0 0 0 0 0 0 0 0.002518233854432047 0 0 0.003771619830586905 0 -0.006801765037132948 0 0 0 0 0 0 0 0 0 0 0 0 0 -0.006870406422348278 0 0 0.0004894325183880171 0 0.0005703879723116621 0 -0.001048793581893988 0 -0.001278821554908259 0 0.005607992371469107 0 0 -0.00351331905730856 0 0 0 -0.002305749065565692 0 0.004294696168205454 
-0.02408610734367839 0 0 0 0 0 0 0 0 0 0 0.00161655172492696 -0.001949951544729671 0 0 0 0 0 0 0 0 0 -0.002156945869315773 0.004896784136107845 0 0 0 0 0 0.004657660506362035 0.006742914150962933 0 0 0 0 0 0 0 0 0 0.03186825579841699 0 0 0 0 -0.007069166276540726 0 0 -0.00369071161639617 0 0 0 0 0 0 0 -0.001722516821923304 -0.001910449065047679 0 0 5.232366742960763e-005 0.0005946336196348824 0 0 0 0 0 0 -8.368765515663082e-005 0 0 0 0 0 0 -0.006552834685716267 0 0 0 0.01092097834002513 0 0 -0.004069241650330735 0 0 0.002408187604138585 0 0 0 0 0 0 0.0002846360878315023 0 0 0 0 0 0 0 -0.01747438913474042 0 
0 0 -0.001031998759470885 0 0 0 0 0 0 0 0 0 0 0 0 0 -0.002466957736103185 0 0 0 0 0 0 0 0 0 0 0 0 0 0 0 0 0 0 0 0 0 0 0 0 0 0 0 -0.00647230465874141 0 0 0 0 0 0 0 0 0 0 0 0 0 0 0 0 0 0 0 0.0006869434786406864 0.002231415495428934 0.001132170764374261 0 0 0 0 0 0 0 0 0 0 0.003625089427793341 0 0 0 0 0 0 0 0 0 0 0 0 0 0.0007366199657332309 0 0.0006504879360938478 0 0 0 0 0 0 0.00190432283838306 0 
0 0 -0.0008014732967589104 0 0 0 0 0 0 0 -0.002464804710574363 -0.0006362133717478674 -0.006106633969101202 0 0 0 0 0 0 0 0 0 0 0 0 0 0 0 0 0 -0.006213416542753526 0 0 0 0 0 0 0 0 0 0.02409362576485662 0 0 0 0 0 0 0 0 0 0 0 0 0 0 0 0 0 -0.005319895938889336 0 0 0 0 0 0 0 0 0.0002872529288122687 0 0 -0.004037784736903211 -0.003673997985299158 0 0 0.006630617248120582 0 0 0 0 0 0 0 0 0 0 0 0 0 -0.005661619072354136 0.01425000232778285 0 0 0 0 0 0 0 0 0 0 0 0 
0 0 0 -0.004901513019160391 0 0 0.01478021591427044 -0.003921986572678457 0 0 0 0 0 0 0.01308359969004796 0 0 0 0.001709117343005189 0 0 0 0 0 0 0 0 0 -0.0006603913232674086 0 0 -0.003408364892176637 0 0 0 0 0 0.01023237196567592 0 0 0.00267111140374687 -0.001053190407137967 0 0 0 0.003201929357045987 0 0 0 0 0 0 -0.004992762140182843 -0.004592716761059216 -0.000617132511981237 0 0 0 0 0 0 0 0.001462021172965699 -0.009320597186321266 0 0 0 0 0 0 0 0 0 -0.006093770029309988 0 0.005057316276133364 0 0 0.001518251816409744 -0.02292953139854257 0 0 0 0 0 0 0 0 -0.001741680992426387 0 0 0 0 -0.01103169814212433 0 0.002386822363086031 0.007718303225477776 0 6.586501026802258e-005 -0.0073293785325397 0.006768472941134044 0 
0 0 0 0 0 -0.005306543001356831 0 0 0 0 0 0 -0.006732020830360563 0 0 0 0 -0.001711891310058474 0 0 0 0 -0.00174370417949862 0.007999257632120992 0 0 0 0 0 0 -0.002368873890254647 0 0 0 0 0 0 0 0 0 0.02345996063134177 0.003251397415576283 0 0 0 0 0 0 -0.009388637603944983 0 0 0 0 0 0 0 0 0 0 -0.001015266663785693 0 0 0 0 0.002733533645521008 0 0 0.0008833299059869973 0 0 0 0 0 0 -0.0009346885385788369 0 0.002688199970129538 0 -0.001059403742799267 0 0 0 0.003299025204082181 0 0 0 0 0 0 -0.001299490868805001 0 0 0 0 0 0 0 0 0 0 -0.0125681133111745 -0.003335679587500343 
0 -0.01869741298168918 0 0 0 0 0.0008770063101427196 0 0 0 0 0 0 0 0 0 0 0 0 0 0 0 0 0 0 0 0 0 0 0 0 0 0 7.253388705238671e-005 0 0.006327710545710397 0 0 0 0 0.02199311168779381 0 0.003950405321881221 0.001870049592505657 0 0 0 0 0 -0.001781441796244879 0 -5.896228802491964e-005 0 0 0 0 0 0 0.0004573702299745279 0 0.0007399246030000582 0 0 0 0 0 0.003020565954933918 0 0 0 0 0 0 0.0004290666360290599 0 0.004877086971515813 0 0 0.002434480710284016 0.0003096618249537504 0 0 0 0 0 0 0.006972341228267068 0 0 -0.00462500611185021 0 0 0 0 0 0 0 0 0 0 0 0 
0 0 0 0 0 0 0 0 0 0 0 0 0 0 0 0 -0.0006130261343073169 0 0 0 0.004165508183639724 0 0 0 0 0 0 0 0 0 0 -0.008708315906104221 0 0 0 0 -0.01081649335110579 0 0 0 0 0 0 0 0 0 0 0.008666454067460671 0 0 0 0 0 0.004165398255275669 0 0 0 0 0 0 0 0 0.004649949219119777 0 0.0005952607649816796 0 0 0 -0.004299790458773165 0.004865328195555247 -0.009119777633628768 0.001970610958072696 0 -0.004625066783912094 0 0 -0.004956550492439203 -0.008862011919984609 0 0 0 0 0 0 0 0 0 0 0 0 0 0 0 0 0 0 0 -0.004079139102384822 0 0 0 0 
-0.0004527281306043536 0 0 0 0 0 0 0 -0.001231334523950421 0 0.00621352551418387 0.01514040900354063 0 0 0 0 0 0 0.0005749863604539671 0 0 -0.004177492753713676 0 0 0 0.0009049790042984398 0 0 0 0 0.001682073834164073 0 0 0.00172120977647538 0 0 -0.01580600793527816 -0.0004368823453284364 0 0 0 0.002346059748887271 0 0 0 0 0 0 0 0.004166503744515498 0 -0.001795010290147906 0 0 0.01615589135661481 0 -0.002572931851077658 0 0 0 0 0 0.001128024230938234 0 0 0 0 0 0 0 0 0 -0.009163944035976137 0 -0.005798390450052931 0 0 -0.001379393963548322 0 0 0 0 0 0 0 0 0 0.00513962924478661 0 0 0 0 0 -2.194374654024161e-005 0 0.001246350222873501 0 0 0 0 0 0 
0 0 0 0 -0.002548558759230471 0 0 0 0 0.008711942372285897 0.0008357782432920264 0 0 0 0 0 0 -0.001031277273812619 0 0 0 0 0 0.004802561575819521 0.0003965343887839643 0.000282948929793282 0 0 0 0 0.00160342338102904 -0.004525419663836927 0 0 0 0 0 0.006332915015285594 0 0 0.07330099099779776 0.0006029053774292094 0 0 0.01079344095659822 0 -0.000112602388476551 0 0 0 0 0 0 0 0 0 0 0 0 0 0.004052571145826042 0 0.001964607036165732 0 0 4.469366414822309e-005 0.004109581533949576 0 0 0 0 0 0.005219476436266945 0 0 0 0 0 -0.003570345634355529 0 0 -0.0001279548597586585 0.007831171396125049 0 0.002019212814501159 -0.001829836889563481 0 0 0 0 0 -0.004350456363444044 0 -0.009598117449345699 0 0 0 0 0 -0.001307650432003301 0 0 
0 0.002995534749210561 0 0 0 0 0 0 0 0 0 0 0 0 0 0 0 0 0 0.00645699884850295 -0.005919206653439187 0 0 0 0 0 0 0 0 0 0 0 0 0 0 0 0 0 0.005193397443390407 0.005690350683704178 0 0 0 0.00939738219482868 0 0 0 0 0 0 0 -0.004017882632652974 0 0 0 0 0 0 0 0 0 0 0 0 0 0 0 0 0 0 0 0 0 0 0 0 0 0 0 0 0 0 0 0 0 0 0 0 0 0 0 0 0 0 0 0.005653843566227201 0 0 0 0 0 0 
0 0 -0.002592773511768796 0 0 0 0 0 0 0 0.0009823003282848812 0.001748809303089044 0 -0.007266876941318473 0 0 0 0 0 0 -0.0005543821537569018 0 0 0 0 0 0 0 0 0 0.005926146693066279 0 0.001901579286125863 0 0 0 0 0 0 0 0 0.0009651936467179056 0.005087590053517562 0 0 0 0 0 0 0 0.0006349083386289379 0 0 0 -0.005656275239513539 0 0 0.003618557517200997 0.005237591784957051 0.0007196501112642345 0 0 0 0 0 0 0 0 0 0 -0.001271738546251813 0 0.008306523219492339 0.004766938538622654 0 0.0009683404420683033 0 0 0.002966154211224484 0 0.01119689597045043 0 0 0 0 0 0 0.002996003151462602 0 0 0 0 -0.004373155005393643 0 0 0 -0.00128007705444333 0 0 0 0 -0.0001028356582808399 
0 0 0 0 0 0 0 0 0 0 0 0 0 0.0004794944346279726 0 0 0 0 0 0 0 0 0 -0.00274317170062221 -0.007737355951569991 -0.001334521122879989 -0.0006870836996856503 0 0 0 0 -0.002453849550721126 -0.001275828948863393 0 0 0 -0.001644820907674098 0 0 0 0 0 0.009048018329618941 0 0 0 0 0 0.003671641438657913 0 0.001658781694898995 0 0 -0.00380935120792856 0.002085629629367048 0.0009140585340556637 0 0 -0.005684551661379305 0 0 0 0 0 0 0 0 0 0 0 0 -0.001218737130207545 0.0069689916839363 0 0 0 0 0 0 -0.00104545495397829 0 0 0 0 0.008067015411796299 0 -0.003594965233520185 0 0 0 0 0 0 0 0 0 0 0.0009905339116493652 0 0 0 -0.00646125310815871 
0 0 0 0 0 0 0 0 0 0 0 0 0 0.003137962042459735 0 0 0 0 0 0 0 0 0 0 0 0 0 0 0 0 0 0 -0.00225999568985686 0 0 0 -0.006234672692251105 0 0.002584592063798053 0 0 0 0 0 0 0 0 0 0 0 0.003036944642557808 0 0 0 0 0 0 0 0 0 0 0 0.0002920044571684396 0 0 0 0 0 0 0 0 0 0 0 0 0 0 0 0 0 0 0 -0.007836501256206283 0 0 0.002455481145068025 0 0 -0.0009437927252455246 0 0 0 0 0 0.004464207493967896 -0.000996296072512032 0 0.003110801010140773 0 0 0 0 
0.007792345104166699 0.00704843787471892 0 0 0 0 0 0 0 0.002225803678350321 -0.002049233748724167 0 0 0 0 0 0 0 0 0 -0.0006016774798610382 0 -0.004399882581900941 0 0 0.0008234991005472135 0 0 0 0.004313510836379177 0 0 0 0 0 0 -0.0120657225721936 0 0 -0.009050972561928281 0.003830702114694224 0 0 0.001601043947450785 0 0 -0.0006923639181268146 0 0 0.007481103156387819 0 0 0 0 0 0 0 0 0 0.009362195499797261 0 0 -0.009090788727445813 -0.0009382772622024508 0 0 0 0 0 0.001397696889416556 0 0 0 0 0 0 0 0 0 0 0 0 0 0 0 -0.000170577494246393 0 0.0006779347455375471 0.01176997316149392 0 0 0 0 0 0 0 0 0 0 0 0 -0.0007383547022868877 
-0.0009000616249939921 0 -0.0004853824378002436 0 0 0 -0.004328851566460137 0 0 0 0 0 0 0 0.001181408543069788 0 0 0 0 0 0 0 0 0 0 0 0 0 0 0 0 -0.001582235665599445 0 0 0 0 0.007553560418047505 0 0 0 0.009004962671386138 0 0 0 0.002632496802800698 0 0 0 0 0 0.007683425711275782 0 0 0 0 0 0 0 0 0 0.01192332285941378 0 0 0 0 0 0 0 0 0 0 0 0 0 0 0 0 0 0 0 0 0 -0.01320532970506996 -0.0009909704934130171 0 0 0 0 0 0 0 0 0 0 0 -0.01005301597059045 0 0 0 0 0 0 
0 0 0 0 0 0.00461899460757019 0 -0.003924652667046265 0 0 -0.00248723448003401 -0.01041564377149167 0 0 0 0 0 0 0 0 0 0 0 0 0 0 0 0 0 0 0 0 0 0 0 0 0 0 -0.002187823200497686 0 -0.004884312838912779 0 0.002252876587185401 0 0 0 0 0.003718048342265709 0 0 0 0 0 0.003244379928717682 0 0 0 0 0 0 -0.004765895024280345 0 0 0 0 0 -0.006498229721565046 0 0 0 -0.004655004676749178 0 0 0 0 0 0.004152911314197762 0 0 -0.02211442454518706 0.008125523010468011 0 0 0 -0.001358566964459558 -0.005217245225273586 0 0 0 0 -0.001410494533207054 0 -0.01009387060420975 0 0 0 0 0 0 0 0 0 
0 0.008981198315401473 0 0 0 0 0 0 0 0 0 0 0 0 0 -0.003879913810907914 0 0 0 0 0 0 0 0 0 0 -0.0004644074428627792 0.005843003268297325 0 0 0 0 0 0 0 0 -0.01075482972520496 0 0 0 0 0 0 0 0 0 0 0 0 0 0 0 0 0 0 0 0 0 0 0 0 0 0 0 0 0.007825973941846316 0 0 0 0 0 0 0 0 0 0 0 0 0 0 0 0 0 0 0 0 0 0 0 0 0 0 0 0 0 0 0 0 0 0 0 0 
0 0 0.003992551590670438 -0.002767608127578211 0 0 0 0.00214566922640517 0 0.001022404086719274 -0.001684181146887778 0 0 0 -0.002044374953256768 0 0 0 0 0 0 0 0 -0.005000579974298642 0 0 0 0 0 0 0 0.01146842045052117 0 0.006787062692601573 -0.006444633961435187 0 -0.006913605795026361 0 0 0 0 0 0 0.0005598278491655724 0 0 0 -0.002001742649667973 0 0 0 0.002057036494987529 0.01095407016261409 -0.001285803312203219 0 0 0 0.00114645582802623 0 0 0.005005327329250957 0 0 0 0 -0.0009949891201403011 0 0 0.0004295594173195096 0.0006584310893037007 0 0 0 -0.0003077311725592082 0 0 0 0 0 0.007474682862216532 0 0 0 0 -0.002402512391525048 0 -0.002191314177148439 0.004675473261132022 -0.002594492686685263 -0.0004344565111027787 0 0 -0.002512515166059577 0 0 0 0 0 -0.001454794091071273 0 -0.003376795361352819 -0.001097120023855757 
0 0 0 0 0 0.01327847927864237 0 0 0.0006280410634506847 0 0 0 0 0 -0.005885286815955237 0 0 0 0 0 0 0 0 0 0 0 0 0 0 0 0 0 0 0 0 0 0.009207512131848254 0 0 -0.001920853385608973 -0.04095707363234166 0 0 0 0.007118582194008126 0 0 0 0 0 0 0 0 0 0 0.0009318939697719933 0 0 0 0 0 -0.005441747894499622 0 0 0 0.001763030889776373 0 0 0 0 0 0 0 0 0 0 0 0 0 0 0.008803773453464435 0 -0.002450803490551547 0 0 0 0 -0.007106581984916482 0 0 0 -0.000543180926623858 0 0 0 -0.001828018537451952 0 0 0 0 0 0 
0 0 0 -0.0006135801161023463 -0.002016229497081985 0 0 0 0 0 0 0 0 0 0 0 0 0 0 0 0 0 0 0 0 0 0 0 0 0 0 0.005163546364501132 0 0 0 0 0.02741078699214646 0 0 -0.01093842469414405 -0.02083601125622825 0 0 0 0 0 0 0 0 0 0 0 0 0 0 0 0 0 0.001671326731060738 0 0 0 0 -0.0005253837615727338 0 0.01312383301741852 0 0 0.004244163981204318 0 0 0.007343811731369932 0 0 0 -0.001835017659033736 0.005535186696247846 0 0.001231045388054521 0 -0.02370849004254879 0 -0.004899737352377229 0 0 0 0.003294577164493143 -0.000908013918617844 0 0 0 0 0 0 0 0.0009345946943694691 0 0 0 0 0 0 
0.007695593305972606 0 0 0 0 0 0 0 0 0 0 0 0 -0.003654424619096769 0 0 0 0.01096783603406778 0 0 0 0 -0.004272450038775993 0 0 0 0 0 0 0 0 0 0 0 -6.703160450055771e-005 0.003081172833053302 0 0 0 0 -0.00500300663195798 0 0 0 0 0 0 0 0.004194449838106821 0 0 -0.001938160992361399 0 0.0040117238672379 0 0 0 0 -0.001607586655479603 0 0 0 0 0 0 0 0 0 0 0 0 0 0 0 0 0 0 0 0.006998276915184886 0 -0.007208663412629533 0 0 0 0 0 0.0001278305334139801 0 0 0 0 0 0 0 0 0 0 0 0 0 0 0 
-0.003022311413095971 0.003075206753922402 0.003790227072727023 0 0 0 0 0 0 0 0.0002079922365721697 0 0 0 0 0 0 0 0 0 -0.002781400739752705 0 0 0 0 0 0 0 0.001408983381491213 0 0 0 -0.00375287758529352 0 0 0 0 0 0 0 0 0 -0.003763060714601542 -0.008641682649032903 -0.009609640250092576 0 0 0 0 0.0128873832093915 0 0 0 0 0 -0.003263510525304804 0 0 0 0 0 0 0 0 -0.005883945832817775 0 0 0 0 0.01174950244181336 0 0 0 0 0 -0.002566532200076771 0.004206983222200004 0 -0.005015203381632001 -0.0149369914731945 0 0 0 0 0 0 -0.0003584547916380919 0 0.00490323077561275 0 0 -0.0002502191208788764 0 0 0 0 0 0 0 0 0.005736647640829371 0.002872502060673946 
-0.004708376174029125 0 0.005937750210998356 0.01010688417604004 0 0 0 0 0 0 0 0 0 0 0 0 0 0 0.00679854889870187 -0.001799069067049039 -0.005248128002236893 0 0 0 0 -0.005214234389252558 0 0 0 0 0 0 -0.0005558816216612814 0 0 0 0.003565136059354597 0 0.003124187414457498 -0.001490773119960797 0 0 0 0.0007350527548612521 0 0 0 0 0 0 -0.002017339932003214 0 0 -0.007129337378718669 0 0.005204424292046098 0 -0.005347476557705558 0 -0.003625841100263151 0 0 0 0 -0.00135180626242821 0 0 0 0 0 -0.0007605140963264482 0 0 0.003497152385457489 0 0 0 0 0 -0.01079285557555482 0.01571137070802315 0 0 0 0 0 0.01057070567546288 0 -0.007551681974613136 0 0 0 0 0 0 0.007995509535893024 0 0 0 0 0 0 
0 0 0 0 0 0 0 0 -0.004956620404880226 0.001120274355141011 0 0 0 0 0 0 0 0 -0.005235784058584825 0 0 0 0 0 0 0 0.005841571940298994 -0.002806246299245333 0 0 0 0 0 0 0 0 0 0 0 0 0 0 0 0 -0.0004383986762167324 0 0 0 0 0 0 0 0 0 0 0 0 0 0 -0.001935375978709334 0 0 0 0 0 0 0 0 0 0 0 0 0 -0.003138232167589252 0 0 0 0 0 0 0 0 -0.01054351045985366 0 0 0.0003697880465746967 0 0 0 0 0 0 0 0 0 0 0 0 0 0 0 0 
-0.0004826425364485302 0 -3.983047440316207e-005 0 0 0 0 0.006819161983204126 0.0008552226771562612 0 0 0 0 0 0.0009108274053800104 0 0 0.006756060794699963 0 0 0 0 0 0.0003974943322654395 0 0 0 0 0 0 0 0 0 0 0 0 0 0.009270370046482755 0 0.001161013822849616 0 0 0 0 0.001993065639772466 0 0.007005716558928119 0 0 0.00333567979649843 0 0 0 0 -0.002004624285106759 -0.00481474701080251 0 0 0.0040722948315169 0 -0.001638783779228514 0 0 0 0.001543137522827024 0 0 0 0 0 0 0 0 0 0 0 0 0 0.001838988229253909 0 -0.00312090915067607 -0.003731356525251247 0 0 0.0003084321524947413 -0.007115880164452268 0.0002439695724733846 0.0034449795318165 0 0 0 0 0 0 0.004944969871884965 -0.0001862003952693747 0 0 0 0 0 -0.001721939982542998 
0 0.008274634045618456 0 0.0002666635459563201 -0.002626366241299105 0 0 -0.003124768180176871 0 0 0 0 0 -0.01135245563355682 0 0.00053908732399128 0 0 0 0 0 0 0 0 0 0 0 -0.0006792859044501134 0 0 0 0 0 0 -0.003463970189163255 0 0 0 0 -0.01124537557133163 0.04491591836124396 0 0 0 0 0 0 0 0 0 0 0 0 0 0 0 0.0008189956392573333 0 0 0 0 0 0 0.0009962650522758057 0 0 0.005740830215498001 0 0 0 0 0 0 0 0 0 0 0 0 0 0 0 0 0 0 -0.000622392414271078 0 0 0 0.00626129072114555 0 0 0 0 0 0 0 0.01000879844493259 0.002670503498988756 0 0 0 
0 0 0 0 0 0 0 0 0 0 0 -0.005382601981983011 0 0 0 -0.0003876190970466788 0 0.01785901500974746 0 0 0.01996466192503085 0 0 0 0 0 0 0 8.803131735095931e-005 -0.001401730656341377 0 0 0 0 0 0 0 0 0 0 0 0 -0.004296781855429815 0 0 -0.005155697314328298 0 0 0 0 0 0 0 0 0 0 0.006022365685101548 0 -0.01213098333246896 0 0 0 0 0 0 0 -0.002501017787343177 0 0 0 0.01589790747633053 0 0 0 0 0 0 0 -0.02753383652760743 -0.009235143712906929 0 0 0 0 0 0 0 0 -0.002584781472310661 0 0 0 0 0 0.003397543463964929 -0.0008341200001011264 -0.003862449990132385 0 0 0 0 0 
-0.0002680006454539623 0 -0.00108857206367245 0 -0.001751678185015426 0 0 0.003986076512671311 0.009206411561552453 0 0 0 0 0 0 0.0002689878333677626 0 0 1.559531821173812e-006 0 0 0 0.003124917436533499 -0.002487695302730205 0 0 -0.001983720395608397 0 0 -0.000797063579104678 0 0 0 0 0 0 0 -0.0005175059646907003 0 0 0 0 0.0003181182215116302 0 -0.002233352078961247 0 -0.003560476621391927 0 -0.004396858025142162 0 0 0 0.008583151761145493 0 0 0 -0.003539291495548058 0 0 0 -0.0002632382627019088 0.002288828770892057 0 0 0 0 0 0 0 0 0 0 0.003769055118677059 0 0 0 0 0.005968981306367752 0 0 0 0 0 0 0 0 0 0 0 0 0 -0.004328657241912254 0 0 0 0 0 0 0 0 0 0 
0.003244009106309584 0 0 0 0 0 0 0 0 0 0 0.001194084069496352 0 0 0 0 0 0 0 0 0 0 0 0 0 0 0 0 0 0 0 0 0 0 0 0 0 0 -0.0002767841097933801 0 0 0.004287567521667753 0 0 0 0 0 0 0 0 0 0 0 0 0 0 0 0 0 0 0 0 0 0 0 0 0 0 0 0 0 0 0 0 0 0 0 0 0 0 0 0 0 0 0 0.003811559532706749 0 0 0 0 0 0 -0.0007620040606233109 0 0 0 0 0 0 0 0 0 
-0.002332770310838773 0 0 0 0 0 0 0 0 0 0 0.008690041625608649 0 0 0 0 0 0 0 0 0 0 0 -0.00108657238778434 0 0 0 0 0 0 0 0 -0.001259873749294117 0 -0.01347796396724744 0 0 0 0 0 0 0 0 0 0 0 0 0 0 0 0 0 0 0 0 0 0 0.001739799110711898 0 0.008063840640571017 0.0005590817368086287 0 0 0 -0.004749444587589936 -0.004501716800357605 -0.004559132376882235 0 0 0 0 0 -0.006031273771121525 0 0 0 0.005277696113974283 0 0.008283619759347934 0 0 0 0 0.0001017359107233409 0 0 0 0 0 -0.0007800197008324408 0 0 0 -0.01331679636600083 0.000643647520482686 0 0.001347343591453928 0 0.003431904407232725 0 0 0 
0 0 0 0 0 0 0 -0.001036105306908903 0.005231049732688952 0 0 0 0.00151165876391761 0 0 0 0 0 0 0 0 0 -4.158959189776439e-005 0 0 0 0 0 0 0 0 0 0 0 0.004994921679939647 -0.00470249694394806 0 0 -0.003623718993537669 0 -0.0008071935328009361 0 0 0 0 0 0 0 0 0 -0.003827068146344273 0 0 -0.003054214825693281 0 0.0068802651616985 0.002309489224692929 0 0 0.002438223810728456 -0.003815329066215048 -0.009189444217320226 -0.002120163169901859 0 0 0 0 0 0 0 0 0 0 0 0.003149830556083107 0 -0.001428344546107019 0.003387374994720847 0.0003597660078809557 0 0 -0.002849189067425902 0 0 0.001548287956400539 0 0 0 0 0 0.002002941256852058 0 0 0 0 -0.00935332692698398 0 0 0 0 0.000126741710868679 0 
0 0 0 0 0 -0.003737904295288278 0 0 0 0 0 -0.002891807436687567 0 0 0 0.001453734504253235 0 0 0 0.005760009419424184 0 0 0 0 0 0 0 0 0 0 0 0 0 0 0 0 0 0 0 0 0.01626768806769408 0 0 0 0 0 0 0 0 0 0 0 0 0.0001264832402253664 0.00719083952625777 0 0 0 0 0 0 0 0 0 -0.009525652209907759 0 0 0 0 0 0 0 0 0.0002114435501764567 0 0 0 0 0 -4.230943816422703e-005 0 0 0 0 0 0 0 0 0 0 0 0 0 0 0 0 0 0 0 0 0 0 
0.01264560899913661 -0.005711562175034135 0 0 0 0 0 0 0 0 0 0.004779859712222655 0 0 -0.004173333768329436 0 0 0 -0.006335098389518803 -2.970203694950937e-005 0.004320519248585068 -0.0007434031015871862 0 0 0 0 0.00948608729864983 0 -0.005163083697259629 0.001613824577693533 0 0 0 0 0.0001546388635129452 0 -0.0002214883332190419 -0.0004003626126655966 0 -0.002773347454255567 -0.01159256045957329 0 0 0.003776544856924537 0 -0.001681445598131535 0 0 -0.009544224223692074 -0.003544737666963717 0 0.002036958351686877 0 0 0.002886922460755804 0 0 0.003203446711624181 -0.0001844462481208079 0 0 0 0 0.00703634502762532 0 0.00630799506981308 0 0 0 0 0 0 0 0.000285663730738211 0 0 0 0 0 0 -0.02324121272308811 0 0.02338888883102779 0 0 0 0 0 0.0003247759497666524 0.00361123430080994 0 0 0 0 -0.003181622856159457 0 0 -0.001833297045903712 0 0 0.002428811051202392 -0.007450905761433201 
0 0 0 0 0 0 0 0 0.001959742561260201 -0.0007532003788244483 -0.006183168955091504 0 0 0 -0.001498173393544697 0 0 0 0 0 0.008077650577523509 0 0 0 0 0 -0.004146726540098613 0 0 0 0 0 0 0 0 0.02117065140361807 0 0 0 -0.002431425187511021 0 0 0.009027376907685503 0 -0.004426760438461378 -0.0007783798026748807 0 -0.004412631470898492 0 0 0 0 0 0 0 0 0 0 0 0 0 0 0 0 0 -0.002434365471668672 0 0 0 0 0 0 0 0 0 0 0 -0.001789322309921017 -0.002766950975385946 0 0 0 0 0 0 0 0.002722039670528218 0 0 0 0 0 0 0 -0.003197536887759826 0 0 0 0 0 0 0 
0 0 0 0 0 -0.0002904021557250739 0 0 0 -0.009832332208115848 0 0 0 0 0 0 0 0 0 0 0 0 0 0 0 0 0 0 0 0 0 0 0 0 0 0 0 0 0 0 0 0 0 0 0 0 0 0 0 0 0 -4.30416711808413e-005 0 0 0 -0.01034033394316541 0.004154662340506142 0 -0.0001858789320211731 0 0 0 0 0 0 0 0 0 0 0 0 0 0 0 0 0 0 0 0 0 -0.003963577040685052 0 0 0 0 0 0 0 0 0 0 0 0 0 0 0 0 0 0 0 0 0 
0 -0.00725471096739436 0 0 0 0 0 0 -0.004611922465016423 0 0.002705773597957196 0 0 0 0 0 0 0 0 0 0 0 0 0 0 0 0 0 0 0 0 0 0 0 0 0 0 0 0 0 0 0 0 0 0 -0.001805502300284637 0 0 0 0 0 0 0 0 0 0 0 -0.01492574307960718 0 0 0 -0.004545811950471521 0 0 0 0 0 0 0 0.00122502348902053 0.004096352628423938 0 0 0.003063849741558509 0 0 0 0 0 -0.02948004064089221 0 0 0 0 -0.004092455791128643 0 -0.01149578372294114 0 0 0 0 0 0 0 0 0 0 0 0 0 0 0.002081618917159365 
0 0 0 0 0 0 0.01605017178101123 0 0 0 0 0 0.009998610481630523 0 0 0 0 0 0 0 0 0 0 0 0 0 0 0 0 0 0 0 0 0 0 0 0 0 0 0 0.02623157232913387 0 0 0 -0.001646101692933624 0 -0.0008858873420574008 0 0 0 0 0 0 0 0 0 0 0 0 0 0 0.001351919104426908 0 0 0 0 0 -0.00264620869209677 0 0 0 0 -0.007040046763907887 0 -0.003523137852140628 0 0 0 0 0 0 0 0 0 0 0 0 0 0 0 0 0 0 0 0 0 0 0 0 0 0 0 
0 -0.003544843320614093 0 -0.004079879979101187 0 0 0 0 0 0 -0.001466381315333609 0 0 0 0 0 0 0 0.00217606040480518 0 0 0 0 0 0 0 0 0 0 -0.007423643400175423 0 0 0 0 0 0 0.01316472113229298 0 0 0 0 0 -0.01215065094003123 0 0 0 0 0 0 0 0 0 0 0 0 0 0 0 -0.006647816322332463 0 0 0 0.000462555618153954 0 0 0 0.0007066310781204936 0 0.0038439759690742 0 0 0.0004932515690277575 -0.001439368630698112 0 0 0 0 0 0 0 0 0 0 0.002803180046136717 0 0 0 0 0 0 0 0 0 0 0.002163695241640896 0 0 0 0 0.0009904169898221553 0 0 
0 -0.008192611056247334 0 0 0 0 0 0 0 0 0 0 0 0 0 0 0 0 0 -0.0001072145985075151 0 0 0 0 0 0 0 0 0 0 0 0 0 0 0 0 0 0 0 0 0 0 0 0 0 0 0 0 0.009277332493852908 0 0 0 0 0 0 -0.004398560175841343 0 0 0 0 0 0 0 0 0 0 0 0 -0.01655431224129146 0.006030195813641401 0 0 0.01035635349061444 0 0 0 0 0 0 0 0 0 0 0 0 0 0 0 0 0 -0.01101436817331004 0 0 0 0 0 0 -0.0006353161784760884 0 0 0 0 
0 0 0 -0.001185767510587604 0 0 0 0 0 0 -0.002416054358017532 0 0.01192579945306502 0 0 0.002590653719937791 0 0 0 0 0 0 0 0 0 0 0 0 0 0 0.00258697114895699 0 0 0 0 0 0 0 0 0 0 0 0 0 0 0 0 0 0 0 0 0 0 0 0 0 0 0.007486868263544975 0 0 0 0 0 0 0 0 0 0 0 0 0 0 0 0 0 0 -0.006623539369465946 0 0 0 0 0 0 0 0 0 0 0 0 0 0 0 0 0 0 0 -0.003886565774590541 0 0 0 0 0 
0 0 0 0 0 -0.0005732009739052993 -0.0040821219635621 0 0 0 0 0 0 0 0 0 0 0 0 0 0.01062153359354142 0 0 0 0.001946742180962497 0 0 0 0 0 0 0 -0.003034839718353263 0 0 0 0 0 0 0 0 0 0 0 0 0 0 0 0 0 -0.002391972149077431 -0.0006410299981842793 0 0.0029253027232691 -0.008349922738484623 0.001563616657910731 0 0 0 -0.001180073555279636 0 0 0 0 0.002328098567370459 0 0 0.004850515062725332 0 0 -0.002636756320053047 0 0 0 0 0 0 -0.001288853523938783 0 0 0 -0.00122491748025617 3.026092650970862e-005 0 0 0 -0.00341386381910452 0 0 -0.01140969450033322 0 -0.003878478061773523 0 0 0 0 0 0 0 0 0 0 
0 0 0 0 -0.00765974388413387 0.002271940926002543 0 0 0 0 0 -0.01286233316597491 -0.005955514990266432 0 0 0 0 0 0 0 0 0 0 0 0 0 0 0 0 0 0 0 0.006986058967090292 0 -0.014126286296773 0 0 0 -0.003279288444885629 0 -0.009854086327015253 -0.002150413949325849 0.009517593687802138 0 0 0 0 0 0 0.006948758875388461 0 0 0.001685907676003747 0.002127079945417992 0 0 0 0.0001430296335040841 0 0 0 0 0 0 0 0 0 0 0 0 0 0 0 0 -0.009125351231567963 0 -0.0005470324267367187 0 0 0 0 0 0 0 0 0 0 0 0 -0.007762004976452025 0 0 0 0 0 -0.004554600969614255 0 0 0 -0.004058381744058376 0 0 
